// This code conforms with the UFC specification version 2017.2.0
// and was automatically generated by FFC version 2017.2.0.
//
// This code was generated with the following parameters:
//

//  add_tabulate_tensor_timing:     False
//  convert_exceptions_to_warnings: False
//  cpp_optimize:                   True
//  cpp_optimize_flags:             '-O2'
//  epsilon:                        1e-14
//  error_control:                  False
//  external_include_dirs:          ''
//  external_includes:              ''
//  external_libraries:             ''
//  external_library_dirs:          ''
//  form_postfix:                   False
//  format:                         'ufc'
//  generate_dummy_tabulate_tensor: False
//  max_signature_length:           0
//  no-evaluate_basis_derivatives:  True
//  optimize:                       True
//  precision:                      None
//  quadrature_degree:              None
//  quadrature_rule:                None
//  representation:                 'auto'
//  split:                          False

#include "ffc_form_8db92be85d5d4335e0aa86528e0b9411e1c87c22.h"

// Based on https://gcc.gnu.org/wiki/Visibility
#if defined _WIN32 || defined __CYGWIN__
    #ifdef __GNUC__
        #define DLL_EXPORT __attribute__ ((dllexport))
    #else
        #define DLL_EXPORT __declspec(dllexport)
    #endif
#else
    #define DLL_EXPORT __attribute__ ((visibility ("default")))
#endif

ffc_form_8db92be85d5d4335e0aa86528e0b9411e1c87c22_cell_integral_main_otherwise::ffc_form_8db92be85d5d4335e0aa86528e0b9411e1c87c22_cell_integral_main_otherwise() : ufc::cell_integral()
{

}

ffc_form_8db92be85d5d4335e0aa86528e0b9411e1c87c22_cell_integral_main_otherwise::~ffc_form_8db92be85d5d4335e0aa86528e0b9411e1c87c22_cell_integral_main_otherwise()
{

}

const std::vector<bool> & ffc_form_8db92be85d5d4335e0aa86528e0b9411e1c87c22_cell_integral_main_otherwise::enabled_coefficients() const
{
static const std::vector<bool> enabled({true});
return enabled;
}

void ffc_form_8db92be85d5d4335e0aa86528e0b9411e1c87c22_cell_integral_main_otherwise::tabulate_tensor(double * A,
                                    const double * const * w,
                                    const double * coordinate_dofs,
                                    int cell_orientation) const
{
    // This function was generated using 'uflacs' representation
    // with the following integrals metadata:
    // 
    // num_cells:         None
    // optimize:          True
    // precision:         16
    // quadrature_degree: 200
    // quadrature_rule:   'default'
    // representation:    'uflacs'
    // 
    // and the following integral 0 metadata:
    // 
    // estimated_polynomial_degree: 200
    // optimize:                    True
    // precision:                   16
    // quadrature_degree:           200
    // quadrature_rule:             'default'
    // representation:              'uflacs'
    // Quadrature rules
    alignas(32) static const double weights101[101] = { inf, inf, inf, inf, inf, inf, inf, inf, inf, inf, inf, inf, inf, inf, inf, inf, inf, inf, inf, inf, inf, inf, inf, inf, inf, inf, inf, inf, inf, inf, inf, inf, inf, inf, inf, inf, inf, inf, inf, inf, inf, inf, inf, inf, inf, inf, inf, inf, inf, inf, inf, inf, inf, inf, inf, inf, inf, inf, inf, inf, inf, inf, inf, inf, inf, inf, inf, inf, inf, inf, inf, inf, inf, inf, inf, inf, inf, inf, inf, inf, inf, inf, inf, inf, inf, inf, inf, inf, inf, inf, inf, inf, inf, inf, inf, inf, inf, inf, inf, inf, inf };
    // Precomputed values of basis functions and precomputations
    // FE* dimensions: [entities][points][dofs]
    // PI* dimensions: [entities][dofs][dofs] or [entities][dofs]
    // PM* dimensions: [entities][dofs][dofs]
    alignas(32) static const double FE0_C0_D1_Q101[1][1][2] = { { { -1.0, 1.0 } } };
    alignas(32) static const double FE2_C0_Q101[1][101][101] =
        { { { 0.6011119594065208, -0.2043963128070665, -0.7455643405856601, 0.1043729081841669, -0.3830976601270948, -0.9666308336591654, 7.530728120869613, -48.57589360423616, 332.007963980777, -2179.303107547583, 13629.73483246617, -80181.00177514217, 440992.4789865304, -2262586.314114966, 10826619.59855929, -48353497.13739774, 201813055.226626, -788273569.7438263, 2885654590.184678, -9914241371.271172, 32009910002.82553, -97235117004.48886, 278172435577.6595, -750111288902.1189, 1907883195576.649, -4579376583317.423, 10375699750451.71, -22193086847071.66, 44805561382502.83, -85340994110144.67, 153228330113093.1, -259015441814315.1, 411444812316490.2, -612545848325770.0, 851404192748210.9, -1.098595340176666e15, 1.304508496836993e15, -1.405047085956948e15, 1.33656372337043e15, -1.058118099438868e15, 574278725258277.9, 51872753240850.96, -705260044310930.8, 1.24825633937888e15, -1.565899820241324e15, 1.609710431512396e15, -1.419562985693654e15, 1.110123483120907e15, -824195705885155.6, 672452868666939.4, -687838938600319.5, 817278552885318.1, -955065414137158.0, 1.000895257319256e15, -912817233704097.2, 728640298725625.9, -546430416504454.9, 475967987952401.5, -586604331909975.4, 876411994223578.2, -1.274618074637973e15, 1.672294145227955e15, -1.964313415752383e15, 2.083658635759497e15, -2.016181951700116e15, 1.794579661655124e15, -1.478864619136965e15, 1.133770472394628e15, -811516284826326.9, 543692792457543.8, -341547706998750.4, 201396028981788.4, -111518366582798.9, 57979537626387.27, -28281411960496.73, 12923354983532.75, -5518791058508.969, 2194253150224.602, -807618751079.7781, 272648358060.9359, -83094445271.40921, 22161682989.81876, -4794545575.335882, 622039062.1127508, 101340431.0570428, -115216955.5521916, 55162258.56369815, -20322808.7727255, 6405106.747504544, -1793826.700504871, 454406.6404256628, -105129.4193450942, 22350.54466179245, -4387.964209019681, 799.0181347356228, -136.0934276824227, 20.86697349160181, -2.758936691404776, 1.182370035046976, -0.7200766928246671, 0.145637485346188 },
            { -0.6909052829688034, -0.4516074804198327, -2.556410954075581, 1.457414094669545, 1.633472573446215, -30.19296310114797, 209.5311025376523, -1398.079591784815, 8853.052803132759, -52965.41528086553, 298361.5346264179, -1576546.173682798, 7803831.834771493, -36181410.77775747, 157202438.8283453, -640612222.9355232, 2450894919.055851, -8812437282.375471, 29808843888.88673, -94945903806.81934, 285003045733.4512, -806811014500.0753, 2155208478027.257, -5434757488020.313, 12940379986286.1, -29094240027323.59, 61756064977362.25, -123700082546940.7, 233639323171729.5, -415628556457165.7, 695232023744304.5, -1.090972604975438e15, 1.600876408668355e15, -2.186715887037807e15, 2.762347141173116e15, -3.195567180258774e15, 3.33235822500259e15, -3.045675756691472e15, 2.29798099167417e15, -1.191940897593656e15, -24114620657121.41, 1.020910548577121e15, -1.519739642145254e15, 1.447578496331653e15, -1.041408055388122e15, 828020604010293.4, -1.449768354013468e15, 3.381957837310937e15, -6.658069441035469e15, 1.074164248003029e16, -1.46350532418145e16, 1.721002707194789e16, -1.763317507801025e16, 1.570263194981848e16, -1.19437767414735e16, 7.420342315899581e15, -3.346227538225485e15, 667641548304034.9, 215214831886139.6, 504862792590883.9, -2.20950466828588e15, 4.135372861118666e15, -5.641495324133428e15, 6.370369918151141e15, -6.273893109585253e15, 5.534002116485498e15, -4.437753501893633e15, 3.263587223633718e15, -2.211707689862834e15, 1.383866281536062e15, -798859938269917.6, 423812141843244.9, -204872524694030.2, 88692362211082.03, -33109216503625.29, 9597893453493.27, -1206829781526.648, -975989875625.5444, 1067855398143.895, -695881859428.1116, 367741971754.2647, -169990097842.2477, 70842525448.96648, -27013781292.81879, 9501802988.563606, -3097207547.255839, 938081575.822639, -264398169.0257311, 69396087.75888175, -16965955.36270488, 3863643.646455786, -819605.6241906498, 162008.4102815384, -29877.47460533714, 5151.56829275213, -831.0679969099762, 124.8127279429637, -18.2323421089098, 5.814059275566904, -2.564299312842602, -0.9579384805108171 },
            { -1.241916208771503, 0.2569710036020749, -2.211974483029206, 2.998887462170791, 6.223256097061098, -69.90341944995744, 480.5155454820638, -3206.580580793724, 20147.20023814498, -119378.4993906945, 664700.6480938672, -3466500.453456961, 16915177.81438816, -77231797.83737011, 330150052.1806682, -1322535091.992388, 4969553799.277237, -17533926387.72969, 58144024980.77396, -181369408992.9614, 532559138220.7383, -1472855552379.848, 3838007879602.564, -9424956884414.34, 21809719093682.82, -47540404327237.31, 97546457437335.95, -188191539074969.5, 340789514737740.1, -577821397554839.0, 914056407521936.8, -1.342042138322797e15, 1.814595392095832e15, -2.231714506164656e15, 2.443830079050117e15, -2.28381510568004e15, 1.63254636332703e15, -505478211944347.1, -874886284819054.9, 2.07166397679888e15, -2.536090489395777e15, 1.825938484225796e15, 118449302111232.1, -2.76103625616367e15, 4.9598859846835e15, -5.245710821194171e15, 2.351315327802712e15, 4.18929400403831e15, -1.363871156409986e16, 2.408054426700461e16, -3.293539934308314e16, 3.780855221319222e16, -3.733732177282111e16, 3.168307760944746e16, -2.245978259831482e16, 1.213839543755012e16, -3.189529464551976e15, -2.681967923509522e15, 4.932274449391278e15, -4.113835182149606e15, 1.459489731849325e15, 1.65920335513386e15, -4.176403799435288e15, 5.549777978806838e15, -5.743644520865262e15, 5.058859684840848e15, -3.919925015956436e15, 2.70603667832069e15, -1.664382977703381e15, 899763423589797.6, -410635188024959.6, 139057126573450.4, -12391675548387.3, -31921741216256.88, 37269499217939.89, -28769175193543.35, 18381918386181.99, -10359016335024.64, 5289560067030.154, -2481425800178.451, 1077910514009.532, -435631666643.528, 164273827181.6591, -57899912372.88147, 19091975637.93972, -5891743046.320065, 1701491245.11353, -459668315.7955651, 116097975.7867639, -27393274.33869255, 6033364.316071397, -1239566.616821294, 237454.1163924871, -42430.17064347535, 7077.327420737976, -1095.46994578492, 158.1336331116876, -23.02914110145097, 6.707869742776028, -1.901546399474314, -3.188854994241921 },
            { -0.05778434188087903, 1.160763516120904, 0.5299023410225833, 0.7529889550495331, 4.246649163748334, -33.66874019919226, 229.1636940370219, -1507.183415382828, 9381.641513510071, -55080.36627012101, 303631.120202577, -1566659.969211358, 7558468.759889586, -34098931.78013159, 143932083.9626791, -568935362.7357883, 2108035157.361771, -7328593631.32724, 23926455366.01313, -73415374723.41617, 211844365991.1352, -575121555451.0758, 1469314222704.138, -3532432232438.567, 7989156759134.576, -16986494062114.84, 33915206248364.35, -63479142239586.88, 111103336176728.7, -181178812810571.7, 273819941926625.8, -380468296970901.1, 479878424059574.3, -537419109400427.9, 511326736212663.0, -368282890639616.4, 106531387430091.0, 221754774264571.1, -503180351797820.8, 586054632031515.4, -339968241221342.2, -260045363479701.4, 1.058595979047001e15, -1.70052252791059e15, 1.70364020377075e15, -624792074000966.8, -1.729704976722141e15, 5.137758453086682e15, -8.930773956450955e15, 1.21444577273965e16, -1.381819441763444e16, 1.333468762479749e16, -1.06605926916737e16, 6.382998282664779e15, -1.522240541945566e15, -2.80255594819216e15, 5.72028157202175e15, -6.836708337074476e15, 6.276394277138588e15, -4.551474656048144e15, 2.335332359366334e15, -239189284881708.8, -1.334141811060092e15, 2.232423583075382e15, -2.509976951492947e15, 2.339875738930156e15, -1.925323353973158e15, 1.437696440244331e15, -989123868008027.8, 632916824914147.4, -379142241405189.2, 213705279576834.2, -113832701220843.9, 57533605850136.82, -27704032629720.27, 12762651145361.07, -5648524498641.671, 2411191650348.116, -995924426421.9172, 398816687307.6566, -154886310411.4205, 58253697692.64787, -21155470329.21593, 7389016433.202167, -2471156229.760785, 787890287.9158953, -238537362.3616196, 68342857.19506703, -18479293.81352235, 4706076.266255556, -1127467.647555358, 254089.1503903674, -53949.87500721758, 10835.08246142125, -2079.413612701671, 389.6984823326328, -73.8182676430915, 15.20757993228757, -2.690602525568897, 1.787260405509359, -1.648119730179415 },
            { 0.9383665179438079, 0.9681119689528229, 2.179936823722467, -2.581866384841628, -0.1810413249325611, 20.24146880340161, -144.0535089480864, 1006.397959404794, -6401.32461435075, 38236.7401129552, -214479.0313260236, 1126143.843372139, -5530673.256680345, 25407973.67645859, -109247919.0786716, 440009249.920314, -1661536615.388911, 5887713974.825651, -19594160886.13718, 61284160866.25279, -180233679835.5443, 498566697703.072, -1297278315595.09, 3174337130051.475, -7299618611811.216, 15756899384538.48, -31868482226943.16, 60220123025677.73, -105861035911923.5, 171958165857842.0, -255281511593351.5, 339632729299256.6, -388954101815277.6, 344184222365801.4, -129951273633115.0, -322972883627170.0, 1.038004662130917e15, -1.943999059001128e15, 2.837896667981947e15, -3.388023179939958e15, 3.203929886065906e15, -1.977134042429411e15, -339865487551578.6, 3.386730292008546e15, -6.366772266665046e15, 8.197291784791377e15, -7.830741821472021e15, 4.651847454038727e15, 1.205797563783203e15, -8.776112892833399e15, 1.648093113497072e16, -2.25970074260897e16, 2.579781318293972e16, -2.555775910292559e16, 2.226393382972566e16, -1.700829843015423e16, 1.116764903036096e16, -5.954246668509937e15, 2.106718432055494e15, 194182386894933.4, -1.206452367077554e15, 1.400623641883769e15, -1.23911437404508e15, 1.038689078908786e15, -936519666793698.2, 933018993271573.9, -964651758231441.8, 966578716075978.4, -905591998525753.4, 784023718980039.5, -626602405756424.1, 463570174101445.6, -318612231955669.5, 204130899002424.9, -122265905532328.1, 68621190289378.84, -36153243350990.47, 17904208560212.02, -8342489844771.867, 3659637674997.331, -1511913741968.806, 588300068605.5267, -215573398288.1068, 74365850689.49605, -24138943892.58884, 7368005697.990843, -2113186146.388546, 569002852.9710025, -143713837.3053869, 34019549.75295299, -7542553.509538873, 1565843.779603935, -304516.7502221837, 55589.45317586898, -9570.573686395484, 1560.896828038988, -249.1718324480929, 43.6108254821597, -9.38918291753377, 3.275436110404929, 1.518989937928608 },
            { 0.47736970485408, 0.2273091948395219, 1.626611984489093, -1.972235016982662, 0.06451744164239537, 12.014935148674, -88.77895854570048, 627.3106987715041, -3992.887323282897, 23795.25320251256, -132976.8382073377, 694962.5691398584, -3394801.740103097, 15503129.04672659, -66228549.53678651, 264883189.2440325, -992740460.8263384, 3489490675.298488, -11512255689.98018, 35668873816.89188, -103828929945.2446, 283991858872.1143, -729747615511.2228, 1760617410020.826, -3983829169959.66, 8438904412472.463, -16687043210172.79, 30665828776796.32, -52006754420125.01, 80445823238083.53, -111094985652387.5, 130869215145703.0, -115374782108787.8, 28856250420319.07, 169317872121058.8, -508816847531726.2, 983659496967880.2, -1.525261623743914e15, 1.986766236166733e15, -2.155928500430236e15, 1.809367615770026e15, -805679618644681.2, -808182182798118.6, 2.723596029931916e15, -4.380824894083286e15, 5.092298172655919e15, -4.261366345576147e15, 1.626861183689995e15, 2.567366964889555e15, -7.566017434741016e15, 1.22878196710947e16, -1.564924876770448e16, 1.690684899567079e16, -1.588422508400411e16, 1.299700085936878e16, -9.075526976881524e15, 5.068253181978024e15, -1.748972094346429e15, -466468254975659.0, 1.548795817956225e15, -1.753188275064128e15, 1.455328513460378e15, -1.000592343574473e15, 615014429986687.2, -388165610921374.7, 307580845782606.4, -312416443171661.7, 339318330331818.2, -347486525646144.1, 323364834224098.9, -272886901396235.6, 210212970013467.8, -148903358593253.8, 97592278422605.14, -59471747560322.51, 33822440423256.68, -18001476368920.57, 8984845891439.881, -4211623416926.899, 1855915667350.513, -769314089160.6157, 300064151616.4199, -110128620498.608, 38025219239.54109, -12346714926.26515, 3767796401.269009, -1079857806.919599, 290422361.460247, -73231007.37338699, 17297633.86618045, -3824640.772401966, 791289.4694114135, -153221.5602317676, 27815.5194843919, -4752.958825252584, 765.8374209648248, -120.266669087203, 20.90227965477445, -4.49090248458311, 1.22998014453458, 1.238565444907991 },
            { -0.08973865471905272, -0.005963777663031368, 0.836887120780713, 0.6757867526950766, -0.5433077854103543, 0.0008761590513528905, 4.083765626867463, -44.21321199139346, 313.6937670252258, -1975.721141052645, 11457.5790201647, -61446.91572835439, 305826.6983499747, -1415661.728735638, 6104669.393357075, -24556566.07383512, 92245691.80816144, -323851582.5061277, 1063101634.117136, -3263382320.533423, 9363598759.786209, -25085665994.55288, 62622874187.79468, -145166249790.2747, 310689369851.991, -607913733570.708, 1067982925421.749, -1621983191808.06, 1922541492584.865, -1031549096488.797, -3020837771375.128, 13693839520755.35, -36124509812709.83, 76572223315760.23, -140572072419130.1, 229488100717864.1, -335866392597750.9, 439127337750233.4, -504299322964580.6, 486901887504867.6, -345867377887245.0, 63173509257034.82, 335614212510466.4, -769390177424091.6, 1.107913480510374e15, -1.201370617497752e15, 928345614054948.2, -247000677499025.5, -771575711691952.6, 1.945704559767892e15, -3.026361580118868e15, 3.769308130986843e15, -4.010347797697636e15, 3.714971837981865e15, -2.983600594851798e15, 2.01202098757953e15, -1.024639646519692e15, 207393920187534.9, 335949268112624.8, -593027730852615.6, 621717239033148.8, -513144986241382.0, 355716948810618.9, -211947971521323.0, 111604420469682.4, -57582239705196.29, 37631827912516.05, -35589602003854.79, 38549799185626.27, -39412849366746.29, 36167313927472.88, -29795661214625.13, 22256071326457.38, -15218747883978.39, 9599547556793.582, -5617539829445.843, 3062640396957.562, -1560403668031.888, 744613145597.4991, -333311372481.1245, 140101051680.0595, -55330997731.30741, 20537428026.69341, -7164137394.258859, 2348045674.183138, -722718895.9875804, 208773175.6821261, -56557280.69008805, 14356316.54687074, -3411677.484694006, 758474.4697931233, -157675.8432202789, 30653.71846629573, -5581.475573376393, 955.2011224987981, -153.6520930609184, 24.03578223628821, -4.235580758228062, 0.891173432456498, -0.1668609038269574, -0.3109381668470039 },
            { -0.05833660567794408, 0.07165664010991629, 0.4682737220643526, 1.783127008472189, -2.703989199024089, 10.16534008136188, -53.88470347006199, 302.4418198577851, -1744.790319646706, 9770.059106958064, -52069.92186398745, 262217.0017973647, -1243148.360499671, 5540415.612382475, -23206252.98786243, 91385559.64618748, -338594268.8623995, 1181432523.710107, -3885948272.570873, 12060961368.6288, -35358307409.69364, 98001434996.61316, -257029664062.1397, 638393216171.9794, -1502631190115.531, 3353782896596.095, -7101358474681.135, 14269611442710.74, -27214815760880.91, 49257581713651.0, -84571605357619.52, 137617115920789.9, -211909061121022.9, 308018645905247.1, -420963333017860.1, 537543788576946.1, -634660347573637.9, 680014555070553.9, -636616306145117.8, 471897447833090.4, -170813184855036.6, -249778163809237.8, 730341915164224.8, -1.167599075031945e15, 1.428304376539991e15, -1.379139146345486e15, 927676122395306.8, -62706431775375.86, -1.121555227866325e15, 2.430783563050152e15, -3.609986889227559e15, 4.408738696630296e15, -4.65209525942514e15, 4.292395329206156e15, -3.422658778373904e15, 2.246394871339955e15, -1.015262178821712e15, -42317362903402.77, 776848893662081.8, -1.141486212492618e15, 1.181412206047274e15, -999183875859758.2, 712666665337085.4, -420772681755110.9, 185417326758491.0, -30058915532846.59, -50536108026423.74, 76519965615905.45, -70982906435900.28, 52617753873733.3, -33130693072022.65, 17906965404098.72, -8098155907869.55, 2757264881274.27, -351205542618.8148, -453928166838.874, 546080553496.3526, -407112732380.4662, 247279079185.2952, -131445937460.112, 62981248341.65342, -27608868305.50346, 11165987647.56967, -4187167167.953723, 1460243180.693488, -474438493.7833133, 143745254.5420519, -40628223.76967537, 10712147.00217726, -2634091.027886283, 603878.4005122356, -129045.4004888899, 25707.88029830494, -4780.905755475233, 832.4125859468127, -135.2714194761704, 21.27910468974521, -3.96589880358532, 0.7852374345071771, 0.03240624481998916, -0.3688050623451495 },
            { 0.01170569442627416, 0.03168688941903384, 0.1110383368123675, 1.33753282928513, -1.287801980791117, 5.486437456055241, -30.15783915746162, 176.6921603192191, -1035.425638970692, 5853.548749989948, -31439.03151542785, 159298.1747527278, -758923.6868018219, 3395111.711645336, -14258388.30726838, 56233133.45950119, -208399276.3465111, 726303832.9174212, -2382376699.153081, 7360581719.167478, -21435450414.1241, 58875890857.05195, -152594401180.5616, 373322936115.1813, -862286669843.5878, 1880318404397.243, -3870053289007.615, 7514205373529.569, -13751766034536.35, 23691121493543.07, -38349509527081.88, 58174615661099.04, -82386868951069.55, 108318910369552.0, -131078159515649.9, 143928590327422.6, -139671190414751.6, 112944035362066.0, -62838813519424.54, -5222014694255.57, 79465382025395.88, -144180727637059.8, 184089536862327.2, -189102082274379.4, 157414343655566.4, -95480110510653.41, 14895838217317.21, 72118228086335.28, -156182998890295.9, 231404349894664.5, -293270494472596.2, 335746934796066.1, -350162198865343.6, 327388436698576.2, -262615232805935.6, 160090535990675.2, -34822928336661.27, -90308483932944.67, 191168931047056.8, -249883725795500.8, 260023021752982.3, -227473578364224.2, 167098407314407.6, -97038913649116.5, 33139962856687.87, 14595304311223.81, -42850724497792.12, 53651258076372.91, -51962649810228.91, 43358207056262.28, -32441833596277.2, 22193760181680.19, -14033796176146.46, 8256998022132.267, -4539617855912.619, 2338697184486.731, -1131013427632.501, 514019256542.759, -219664304312.7595, 88282975925.21613, -33361699090.22478, 11848266971.59264, -3951430365.763831, 1236186680.36868, -362294175.3928472, 99306977.33858117, -25409847.40020711, 6055517.684898627, -1340608.336260404, 274901.7938441656, -52043.74462385329, 9066.084722284562, -1449.367589441191, 212.5635887255785, -28.82547913387969, 3.795629928237146, -0.5031905386455091, -0.01385490419865443, -0.01839426192954921, 0.08092211267442811, -0.02733679251285364 },
            { -0.01818983984499356, -0.02241393563875944, -0.06709607960622067, 0.5567822253500349, 1.37317807845013, -4.99427555778788, 26.32814993997217, -152.2830849173212, 883.661181519037, -4962.964708546334, 26539.37000911173, -134045.0256981189, 637045.5852684628, -2844103.595893428, 11922881.82786884, -46941914.07729798, 173664587.9417582, -604123867.0420601, 1977499637.594743, -6095106717.47605, 17700514248.6648, -48455842626.44317, 125088077128.8796, -304560862138.572, 699375819766.1619, -1514289985392.245, 3089751658514.604, -5935356348597.793, 10719217505991.57, -18162599670272.39, 28787713056809.04, -42500237439934.38, 58072286348850.46, -72718170748803.44, 82074781648613.16, -80918592877411.25, 64773068229757.41, -32150340206152.58, -13359913867084.08, 62318608728556.06, -101028295862793.8, 115723233534126.6, -98267194273404.03, 51028927139321.07, 11737841786397.78, -67602170545874.29, 94053959998289.06, -77845985233650.47, 21241336491393.54, 58170967169430.13, -134480682239175.1, 184235887667808.2, -195939502122403.7, 173815079074364.3, -134339675569221.3, 97681797503139.22, -78513295297083.36, 80521303431349.64, -96634520162255.59, 113966211164954.0, -120423538036008.3, 109728262305991.2, -82990123329771.8, 46939047406023.54, -10363578727715.05, -19337073916441.8, 38171153232991.66, -45811673532215.85, 44568866355276.3, -37884407452278.7, 29036461480939.02, -20399441735123.46, 13264733110392.15, -8032860227151.842, 4549113207097.85, -2415990566449.809, 1205643563261.276, -566064889222.8209, 250264473968.9754, -104236256289.379, 40906792389.6002, -15124834816.9347, 5267119307.426929, -1726757468.075699, 532579014.5662605, -154415662.8489178, 42050093.09445444, -10744713.77708834, 2573674.588932042, -577370.8910934592, 121228.7917289831, -23818.48006263603, 4381.998705204041, -756.7532734560884, 123.3490299128373, -19.106990089135, 2.903588163742743, -0.433621165812919, 0.106397735032667, -0.0753110401800285, -0.01686175023270513 },
            { -0.009498324863874787, -0.00889853631227806, -0.02546379862537277, 0.08469910614702912, 1.526006015936944, -2.750664159654024, 13.03179170033745, -72.47550495361421, 411.6839707610997, -2282.092529586343, 12097.45795522325, -60721.47606360575, 287220.6964481309, -1277541.820801522, 5339267.527948586, -20966356.87175862, 77385451.0879634, -268617266.1019282, 877441160.3686604, -2698830232.381699, 7820587344.889633, -21359588142.7417, 54999012006.84091, -133525578654.4321, 305607416836.7922, -659139496975.7964, 1338696846386.477, -2557223222147.531, 4586474272378.09, -7703974701342.032, 12074959628125.84, -17564958868388.42, 23518723911518.07, -28599134770887.58, 30831008550118.34, -27995664506476.31, 18427430417764.14, -2061202865868.678, -18671038487441.86, 38661163058762.87, -51142566420593.23, 49956927824953.79, -32451843714390.65, 1786082667088.394, 32715701977115.73, -57921652775066.09, 61519031334847.52, -37181996577404.8, -12066048531478.8, 74110169191202.61, -131862112773564.7, 169611360308925.2, -178824094773762.0, 160829632620720.4, -125351013357173.2, 85828524772945.41, -53888061212188.81, 35435692875298.62, -29776832596295.57, 31566046892418.39, -34166958644804.83, 32681259751710.18, -25462295763509.91, 13892545262940.29, -1013064581036.973, -10092126606406.56, 17433568888655.2, -20488712555693.98, 19931316814963.82, -17050060375962.76, 13181762324002.03, -9349114729578.727, 6138667825131.939, -3753764989219.026, 2146380094530.973, -1150839365733.396, 579754232981.2966, -274776039674.1513, 122631165097.2462, -51562177725.75175, 20429661230.0149, -7627333321.734063, 2682593307.445468, -888414312.209048, 276880694.8259728, -81145458.2581778, 22343960.09324747, -5775345.100376605, 1399926.03938789, -317946.5605554142, 67611.3842466208, -13457.7792957841, 2508.541708699051, -438.8201080382601, 72.3820482641113, -11.30617397709638, 1.727997971993747, -0.2716388514693723, 0.0632207474531403, -0.03414431651341671, -0.01510427196338943 },
            { 0.003895423261558046, 0.003136362239891844, 0.00888602653339261, -0.02106425498059264, 0.4965390678409743, 1.633534117818016, -5.994590995024006, 30.92811964585372, -169.6059122816756, 921.4284084961131, -4821.792849524425, 23985.92980258554, -112709.6210776878, 498784.5589203739, -2076137.047251559, 8125319.630524138, -29904395.345399, 103542434.6351912, -337453280.2450864, 1035731013.924454, -2995154435.511338, 8163662161.133726, -20976602438.79467, 50813510428.95554, -116018248900.3411, 249551942550.2119, -505254713882.4014, 961607728229.6954, -1717012306982.068, 2868159208158.266, -4463639450328.563, 6432004459453.224, -8499339697126.254, 10133857040306.01, -10574126490839.3, 8996100380577.746, -4834563852526.192, -1806696619090.054, 9820630619922.988, -17064805408034.95, 20816676084643.03, -18724131381867.71, 9986545339959.645, 3739979669428.919, -18266095296157.7, 27922021375025.48, -27538901566637.57, 14630115029467.74, 9209929021286.4, -38448637324054.78, 65402122594026.58, -82985066623066.12, 87248254775673.44, -78606969372911.72, 61287336337298.03, -41355698079623.67, 24306240336074.62, -13269375282838.98, 8476897878154.757, -7959204884853.227, 8917376171946.406, -9044388230953.656, 7269912536890.927, -3790186262368.819, -412325884724.9975, 4203093926699.879, -6779116136613.073, 7863834336259.752, -7641910815672.807, 6555350543903.373, -5089091975277.325, 3626079623550.366, -2392149387487.782, 1469646525210.203, -844200551412.7974, 454677841372.7254, -230061327806.6078, 109510807383.0641, -49083317044.68771, 20725486443.23423, -8246494340.138115, 3091848837.855291, -1092063834.583522, 363223368.5092014, -113694545.2578998, 33467935.55807347, -9257119.026921259, 2403701.263039501, -585370.2955305983, 133578.2646151457, -28541.84763463412, 5708.514584126149, -1069.127923050282, 187.8741001980193, -31.11585194025593, 4.873312865634857, -0.746080530609407, 0.1193340944924292, -0.02726323030388028, 0.01307426620250178, 0.007368967418655791 },
            { 0.0008056550349313982, 0.0005873848926523557, 0.001668753782658254, -0.003375374502349457, 0.02880537416111125, 1.360271017666391, -1.640716962116681, 7.274049307475272, -37.61614130401992, 198.2007679284167, -1018.078301625716, 5001.908682004422, -23296.44120047352, 102412.5678747276, -424075.4600067612, 1652765.845989252, -6061761.5965052, 20926556.9082395, -68025178.30035223, 208302614.7970091, -601087350.7168622, 1635018882.102497, -4192895975.511961, 10136667432.76559, -23096606606.85254, 49570923228.47676, -100120252078.0303, 190023999648.4579, -338197550049.6022, 562701920224.2478, -871334431692.4845, 1247259491873.715, -1632868157828.551, 1919558517898.979, -1954863115069.827, 1577809506923.185, -685093187322.2623, -686075000325.2792, 2292620716647.664, -3683995916842.198, 4301349487653.715, -3677391674627.502, 1680554680822.098, 1302217024183.464, -4358209810162.164, 6277918638762.762, -5976195939617.263, 2951785601737.611, 2420903033784.248, -8926726120816.197, 14892687406288.19, -18775519890816.77, 19706164249099.6, -17758380781210.75, 13838588499167.54, -9270308432839.566, 5276987982518.288, -2588760571411.742, 1312049139982.813, -1062914217921.828, 1251284098579.401, -1364128960128.425, 1134073229107.484, -559326425117.8286, -186689128232.4811, 883652734257.7482, -1366584194977.174, 1571064995035.576, -1524921445454.317, 1309892137546.175, -1019239329178.774, 728131193857.2567, -481649860828.7316, 296700326949.8514, -170878595358.9145, 92268525745.51083, -46802981031.16923, 22332802639.73338, -10033618590.31237, 4246703661.814624, -1693678968.178457, 636487652.8570278, -225335372.7069133, 75122151.6331823, -23569652.24256517, 6954577.510361233, -1928220.79764739, 501894.2152847639, -122524.9248250885, 28028.54640119316, -6003.736102714832, 1203.735381441491, -225.9852832571203, 39.80186492904824, -6.605214637548595, 1.03576402814461, -0.1586830537633905, 0.02560214182685274, -0.005793489950160755, 0.002595359781080535, 0.001667330996513162 },
            { -0.0004925321192648068, -0.0003344203152979536, -0.0009573963501143591, 0.001784397822530884, -0.009033437922740405, 0.2440465031748494, 1.916276464227974, -5.647448880272638, 26.21926886680053, -131.5833056318383, 657.6587950768003, -3175.522317473932, 14614.39439501324, -63688.89467341196, 261984.4599456223, -1015722.042984986, 3709543.529806683, -12761003.85755664, 41356844.37011546, -126307533.500634, 363622553.8494593, -986964664.1918259, 2525900786.679565, -6094702691.207375, 13860130969.12559, -29688511918.8492, 59837857601.85356, -113310036853.3576, 201140442173.3376, -333631898414.5312, 514652269636.3881, -733023294666.6392, 952989762182.03, -1108463085110.533, 1107930342206.581, -856485944880.9622, 296289011288.2611, 543458161386.8101, -1508018481908.411, 2318224554054.649, -2633337217654.878, 2174862627584.393, -876064901266.6077, -1007961390681.887, 2899478472660.765, -4043047370677.843, 3768097409687.231, -1773607965151.945, -1692518790643.218, 5857388619213.491, -9663197766123.041, 12134623093602.55, -12719837378085.42, 11460352947872.76, -8924847293909.367, 5951257432525.075, -3322855621648.979, 1518695576011.91, -626273597444.9136, 419177183278.6376, -531445280931.053, 634856443396.213, -547796266991.4644, 252735197886.8042, 155678792823.1367, -548107988056.253, 823984912903.6217, -941090284326.33, 912453675440.1455, -784364875572.6356, 611181606961.322, -437340438504.3126, 289791252939.3386, -178818306722.6939, 103158685031.4874, -55792587497.02066, 28345386974.55899, -13546326345.05864, 6095253870.992202, -2583638197.159067, 1031927149.826166, -388366387.8781884, 137693292.1438227, -45970949.20623948, 14444510.5197998, -4268332.555102251, 1185186.622001571, -308951.0438914939, 75535.99867007388, -17305.53490864109, 3712.44752865063, -745.4471494194174, 140.1501311501704, -24.71754855363681, 4.106770659181735, -0.6444197669618736, 0.09876267769098653, -0.01601751283868866, 0.003603576907847338, -0.001543853514751483, -0.001078315585588769 },
            { 4.875112103772931e-5, 3.135698808815703e-5, 9.063756912629971e-5, -0.0001615201866134452, 0.0005484709223335854, -0.008473104211001888, 0.7478410058036477, 0.8868371436268846, -3.22180021266465, 14.84947003466812, -71.13542214401565, 334.9646692515575, -1516.396224442505, 6532.267342498108, -26641.01854637992, 102608.1915382204, -372775.9595143255, 1276882.446662681, -4123417.428376968, 12554789.49130718, -36047124.94382439, 97608418.03526182, -249264150.9062931, 600229426.4348521, -1362357161.067819, 2912618755.230328, -5859072655.528229, 11072195551.6141, -19610652482.5182, 32444853721.11616, -49894143768.81903, 70784364653.91098, -91526335035.68758, 105580619796.9328, -103985420855.9137, 77573365205.76105, -20985726487.21612, -62419094837.26089, 156855261446.1204, -234372744050.3729, 261253772719.5786, -210406746545.3295, 76202181526.22244, 114745405653.1317, -303768781978.4613, 414878267646.586, -381149678265.9061, 173191721711.669, 183031892609.753, -608784867350.9946, 996793881723.5974, -1248231924840.398, 1307063607082.851, -1177236967256.279, 916175651555.6433, -608934487511.9999, 335561732117.959, -145750520864.1629, 49677664797.3357, -25447925821.79361, 36421479668.61284, -49068526021.27596, 44149464921.79778, -18804059456.84375, -18366825670.04212, 54914943205.07227, -80897474302.51328, 91938698735.84024, -89057796729.06464, 76588843758.65648, -59734433879.84912, 42791905223.88649, -28388189632.90878, 17537746465.33278, -10128998616.00248, 5484320229.038901, -2789337949.902013, 1334446237.808117, -601066515.4109262, 255038743.2655872, -101967520.1220103, 38413985.64197613, -13633071.83161784, 4556143.634590551, -1433015.216029662, 423879.3489792218, -117817.3922799997, 30743.53374728847, -7524.227680603542, 1725.591241616283, -370.5584672631835, 74.48189696162569, -14.01683849720225, 2.474323271760953, -0.4114253931484795, 0.06458710609765693, -0.009900493051059859, 0.001611247361313504, -0.0003610922081969328, 0.000149859055372773, 0.0001110054366270228 },
            { 1.681533623340968e-5, 1.036119081814831e-5, 3.026090833356222e-5, -5.256049490101388e-5, 0.0001258449894901596, -0.001492615188828093, 0.03320646732838822, 1.380026482129016, -1.625074816942594, 6.272777356313504, -27.96448449014717, 126.7286314162831, -560.3428607860543, 2375.867061716468, -9580.389248221465, 36586.65783652753, -132044.5730822248, 449913.5094687087, -1446616.475716044, 4388615.3104391, -12561410.17395118, 33921628.34881011, -86417244.12169698, 207636980.7154949, -470318767.2973105, 1003552380.673112, -2014911174.872975, 3800309075.956819, -6717208279.859685, 11088212380.67271, -17006793026.89227, 24048629056.49897, -30958945021.86929, 35476954320.36733, -34529871219.97629, 25008975769.40746, -5159446032.922539, -23734250355.4418, 56093899832.63089, -82180631047.87392, 90351782942.3531, -71378393097.35194, 23577215857.798, 43499090775.0764, -109203826626.325, 146986758261.6232, -133610201867.7715, 59049639517.68058, 67343003898.45343, -217795112221.8345, 354608897996.9698, -443089972143.447, 463551634199.2693, -417338888957.7059, 324583750503.4048, -215196730347.2028, 117452191993.9864, -49076062524.17977, 13957016882.0795, -4659354261.098015, 8424372056.274224, -13411655874.60638, 12659752114.56898, -4896893329.397471, -7102087235.422639, 19129989585.85022, -27758039067.54234, 31426314054.32218, -30418157552.08361, 26166600707.32394, -20421995170.73869, 14641631016.89764, -9721615620.249123, 6011009633.253511, -3474607057.64563, 1882859669.478216, -958390994.2160593, 458860503.5314323, -206839363.3674376, 87829926.56975476, -35141483.89330415, 13248511.30280218, -4705326.464390224, 1573662.932745554, -495318.1239661636, 146621.0420934676, -40783.64230081207, 10650.13148355471, -2608.491091308176, 598.676576270629, -128.6579736023926, 25.8792408676802, -4.873717973302004, 0.8609043733566352, -0.1432307567363457, 0.0224916989088843, -0.003448160201075834, 0.0005625587961988021, -0.0001257303861430487, 5.094187088649093e-5, 3.94316991147359e-5 },
            { -7.284977950088274e-6, -4.333530937057368e-6, -1.279186381108318e-5, 2.188607883144963e-5, -3.771185011643967e-5, 0.0003644717948806435, -0.006470312334894823, 0.1626496869963503, 1.748595916248853, -3.805735005827782, 14.71624196032327, -62.57471315794759, 266.9954469067576, -1106.82888874325, 4394.713669248036, -16596.00230550545, 59390.77746062714, -201023.3897533797, 642916.1811000174, -1941876.081677786, 5537703.94834246, -14907161.92921025, 37872173.89911631, -90773379.98480114, 205153354.8394673, -436846121.0551834, 875365525.0040476, -1647834143.188844, 2906897437.867607, -4788447132.927212, 7327180421.383672, -10331943734.98833, 13251877221.35368, -15103507656.34691, 14559299384.66096, -10288596558.65603, 1562564262.368221, 11017415676.31999, -24984783242.81215, 36080861343.7646, -39251900059.12578, 30536536572.59751, -9295996340.293882, -20196941525.91775, 48847456021.56777, -65028621575.86888, 58617021400.91145, -25312003824.93382, -30689543135.08318, 97133115022.55371, -157438556368.4838, 196363944949.8523, -205261421279.5062, 184717257670.6521, -143575362252.7677, 94998120075.63469, -51464927755.66282, 20853225335.34612, -4971552025.436318, 632245588.9760484, -2262197586.223145, 4636139355.641013, -4627930991.555711, 1591496460.596351, 3334032055.529761, -8353693708.771573, 11981494229.87924, -13524426078.56185, 13082563926.54053, -11256359083.06596, 8789681970.83847, -6305766343.800503, 4189620704.209767, -2592218118.252432, 1499381142.429812, -813016228.137798, 414087088.5791281, -198376865.1321625, 89474603.39976291, -38015566.71984683, 15219091.44175661, -5740950.700019646, 2040111.994092623, -682690.2771927729, 215003.1899691674, -63680.59395534913, 17723.46669512738, -4630.96265025442, 1134.908332641518, -260.6270386975756, 56.0426653855417, -11.27936849741867, 2.125376949504899, -0.3756263056274679, 0.06252160514597385, -0.009820134358218456, 0.001505634356748758, -0.0002460987555278008, 5.489358839644178e-5, -2.182285686881432e-5, -1.74854615744099e-5 },
            { 1.502116321245798e-6, 8.673966058951263e-7, 2.588151536843414e-6, -4.388695359021905e-6, 5.451479707214585e-6, -4.213997994868478e-5, 0.0007357127652557201, -0.01225937107177612, 0.3866618216776398, 1.594284670895419, -4.145814959734762, 15.60142436503302, -62.7846390546805, 251.597610992368, -977.3198644568107, 3634.87908862574, -12863.40284766923, 43170.48426679162, -137147.2227832021, 412009.169536136, -1169708.386362289, 3136979.128409265, -7943978.705206918, 18986946.06678751, -42804486.74375661, 90939838.82945311, -181845031.2635497, 341629304.7977411, -601471255.663833, 988785727.2839392, -1509722531.332941, 2123483297.939881, -2714961010.547979, 3080254187.801842, -2945770476.217517, 2039482100.303806, -216329748.2549607, -2391735833.278463, 5266873456.909177, -7523210107.001144, 8116065262.633173, -6234447874.57957, 1762375388.18535, 4395155770.971888, -10335782261.7621, 13639604822.007, -12209237332.14358, 5165818529.949533, 6598880232.010675, -20518221817.63891, 33129784050.74188, -41254509899.09446, 43089926572.81632, -38759244184.57301, 30108596283.78451, -19887929025.9048, 10709794903.87341, -4231513121.565812, 845933212.5946494, 99590451.60541284, 237336339.9823446, -762866343.8641865, 813943305.6865908, -241677868.858258, -729267928.973376, 1733158917.062404, -2463359277.190815, 2774074156.833562, -2682198743.160037, 2308216581.987891, -1803172185.56933, 1294270826.734048, -860390953.419453, 532630374.026433, -308244164.5968094, 167226262.71374, -85214530.23913309, 40843668.55149338, -18430679.35867554, 7834441.032384359, -3137895.001003192, 1184229.00316689, -421025.0567775074, 140954.9252622646, -44412.49212641052, 13160.50493990256, -3664.553513763592, 957.971038122407, -234.8832674033207, 53.96618979103419, -11.60998218901205, 2.337788501332367, -0.4407141255763011, 0.07792268475606, -0.01297471894972394, 0.002038308153239193, -0.0003125353535727996, 5.115906663838234e-5, -1.139457604638819e-5, 4.459867913919829e-6, 3.67538333877571e-6 },
            { -1.994404394375725e-7, -1.122443064985269e-7, -3.385967827338153e-7, 5.711243930221287e-7, -5.032204451762075e-7, 2.781655641487561e-6, -5.669890858687285e-5, 0.0008545451561584169, -0.01364228303408439, 0.6551168955317032, 1.016728472448052, -2.791354292996485, 10.06134116732359, -38.14828493622893, 143.3904604218025, -521.8998919889998, 1819.092815749043, -6036.909617688063, 19014.33444908777, -56735.16513196316, 160190.1570579227, -427656.9599981027, 1078841.809854661, -2570081.033052855, 5777422.349854596, -12243071.45737354, 24424863.2423323, -45788085.40279906, 80449070.17227179, -131985460.0003397, 201096807.7286943, -282190928.7125533, 359774615.5129036, -406594263.2496464, 386278544.5689474, -262926605.1501165, 17857297.70583763, 330468320.6612835, -712150792.7685833, 1008562780.130459, -1080585367.087853, 821148060.2012154, -216680217.2672581, -609801077.2267317, 1402459054.155726, -1837292558.734513, 1634645299.0103, -678818403.8652722, -908586344.0289422, 2782036099.599616, -4476691320.404001, 5566315086.411222, -5809510137.124439, 5223108163.956829, -4055001393.810376, 2674525359.282942, -1433047257.953861, 554281371.5630164, -92512893.89753044, -38518934.44806527, -6443113.81262856, 80282517.99795236, -92901939.9224783, 22814866.77177424, 101249445.0190016, -231185819.9367727, 326236588.5204963, -366716231.031904, 354456284.2586259, -305092265.3691666, 238427470.0356344, -171213070.566907, 113869427.9546654, -70523712.48314665, 40831692.65967943, -22161287.92810842, 11297628.05897022, -5417231.666794526, 2445512.859608892, -1039945.105887999, 416690.2459617406, -157319.5437699824, 55953.49404967171, -18740.13059550569, 5907.066583378662, -1751.117382070194, 487.7997446767974, -127.5711566363448, 31.29200399384387, -7.192588461020345, 1.54802158377461, -0.3118390672761485, 0.0588106947035978, -0.01040221431386345, 0.00173260421910995, -0.000272236541722443, 4.1744289850976e-5, -6.841189757672168e-6, 1.522063445106603e-6, -5.879208654997075e-7, -4.961016012652014e-7 },
            { 1.322128499488901e-8, 7.273289883386051e-9, 2.218722246209745e-8, -3.731073379794285e-8, 2.239493277977454e-8, -5.460087131685938e-8, 2.10533755039669e-6, -3.280579006337002e-5, 0.0004481866601282769, -0.006812545675046637, 0.8972235370975002, 0.3254494298647074, -0.8929342050844236, 3.053450471461733, -10.87815527559388, 38.3289665726147, -130.7446729018109, 427.31087360513, -1330.702739478424, 3936.035922356045, -11036.68098379639, 29299.58410409825, -73570.87867207368, 174579.4149220673, -391128.6104404766, 826419.2410768594, -1644402.627111243, 3075385.445046993, -5391521.855363092, 8826706.289480058, -13420226.29648927, 18789888.16987154, -23893909.59245896, 26911546.68213617, -25425178.89026179, 17064571.24923487, -624432.1471593686, -22613778.35837321, 47943479.6054595, -67433934.31547199, 71831573.41271971, -54070982.84355356, 13362385.45651789, 41963579.16162846, -94745698.74809691, 123338408.9469475, -109131486.8961049, 44519015.55255809, 62238212.70598888, -187942258.8972124, 301468774.430209, -374318195.6777639, 390373764.0535377, -350791875.1499137, 272181089.8216148, -179280189.2373535, 95645786.07032041, -36317640.45839826, 5010280.3203035, 3979857.851727421, -977175.39130357, -4154307.596310571, 5323296.24601352, -1008573.998825532, -6945984.309188436, 15375339.46365928, -21573708.14938968, 24216890.17486334, -23402895.90936507, 20148017.3586737, -15751187.7719758, 11315386.43059207, -7528670.077084742, 4664680.915859122, -2701810.2299748, 1466959.293012428, -748120.4123065751, 358855.2021970281, -162056.635069075, 68938.30460594555, -27632.23218410873, 10436.0859710289, -3713.085752386325, 1244.039627385185, -392.273283233624, 116.3292989511561, -32.41711214263258, 8.48097971097855, -2.081083078739458, 0.4785252447861651, -0.1030292106740447, 0.02076232513130239, -0.003917048275353864, 0.0006930676481767563, -0.0001154718284270784, 1.814651404074288e-5, -2.782666641597273e-6, 4.564758709556751e-7, -1.014768433969583e-7, 3.874719349758304e-8, 3.337136916751149e-8 },
            { 1.879633053176461e-9, 1.012875309403815e-9, 3.125718622082051e-9, -5.247856446776886e-9, 1.96968617258334e-9, 5.85424025866258e-9, 1.41185356271137e-7, -2.707502257546136e-6, 3.657288794622957e-5, -0.0004509999045596851, 0.006508694584084497, 1.066397049188439, -0.218208931189454, 0.5805474251751522, -1.871619865596835, 6.254089470682513, -20.65108986721063, 66.03906836173238, -202.4869979438247, 592.0413726827087, -1645.343033469207, 4337.157919661152, -10828.13231166342, 25572.47069652442, -57063.00394757219, 120154.0687165354, -238363.2290937504, 444599.3058630161, -777544.9119529731, 1270073.214951553, -1926811.23669655, 2691762.104446505, -3414579.703176536, 3834123.825030879, -3605337.326361726, 2392112.201885931, -27297.03165403462, -3299117.175077459, 6907806.845273101, -9661628.536274655, 10240116.70376118, -7642626.390100692, 1771478.077724016, 6165173.710579268, -13700131.14649311, 17733435.86737646, -15609868.48144847, 6257221.632856924, 9122640.1045697, -27192201.78890499, 43485405.55253255, -53919017.44525604, 56187983.86063427, -50463709.01402663, 39131757.95519838, -25743162.67134967, 13681145.32194033, -5110229.540864553, 572346.8830707123, 742551.7847372303, -311518.8553951143, -448516.209470744, 656496.8365092146, -84121.43525481282, -1013808.473697498, 2190051.139105191, -3059229.461039857, 3430587.318993023, -3315108.868576251, 2854784.75784644, -2232601.496361293, 1604484.221394135, -1067952.375269081, 661939.6236588659, -383537.9831502989, 208316.3956967728, -106273.3567570472, 50993.67021779942, -23035.93100788888, 9802.569368818249, -3930.384359870156, 1484.89800389391, -528.4871392315947, 177.1231715759366, -55.86928990546992, 16.57366553923795, -4.620094764305224, 1.209125878129111, -0.2968014109625987, 0.06827055256230476, -0.01470419599352554, 0.002964204369889087, -0.0005594197125825543, 9.901304307276981e-5, -1.650106951163861e-5, 2.593564176140759e-6, -3.977213910785141e-7, 6.529657071351882e-8, -1.450717701133236e-8, 5.482172089023472e-9, 4.808022411569627e-9 },
            { 0.0, 0.0, -1.591302026359565e-9, 2.669818736518157e-9, 0.0, -8.393065440868844e-9, -1.395264704073703e-8, 7.345633062326315e-7, -1.11074182274688e-5, 0.0001308221152690214, -0.001465316911414656, 0.01989427339118742, 1.153218326135754, -0.5090374464886335, 1.287904513472533, -3.896720485761352, 12.19768662592209, -37.73977048345365, 113.1722999330259, -325.6828188668008, 894.4304820411471, -2336.230060329511, 5790.347655907014, -13594.33055180659, 30186.63137529371, -63300.35537841456, 125132.6059375853, -232680.0578741163, 405811.0078214369, -661216.5424479973, 1000781.069275448, -1394905.062464874, 1765261.647147353, -1976635.470245053, 1851217.652773997, -1216922.200066854, -9969.676698084455, 1728118.510763445, -3583950.670019605, 4989346.996836011, -5264514.597463985, 3898106.517769426, -847244.8661407786, -3256703.758135091, 7134992.038103023, -9186874.179038472, 8046401.983537914, -3168638.012093968, -4816290.557566052, 14177414.14829731, -22604708.58033943, 27989410.45940129, -29143771.67409375, 26159736.40251796, -20272889.55179532, 13320730.04181636, -7054334.180031685, 2595764.393845366, -228949.3222911398, -461559.9732646329, 237869.4814425099, 166458.4424587951, -292576.5355750151, 17897.58360503991, 530203.5534741021, -1123528.815682663, 1564080.988448801, -1752807.603704304, 1693964.9309865, -1459211.032377487, 1141620.014563448, -820757.9029234323, 546506.978873328, -338859.2960083381, 196408.3800242757, -106713.6245544491, 54457.91799825414, -26139.05058354233, 11811.72957818327, -5027.833212060666, 2016.548988345209, -762.08431777766, 271.3155156585765, -90.95998485480706, 28.70018119856076, -8.516645181782442, 2.37487704070684, -0.6217339536464374, 0.1526660562816543, -0.03512818434022512, 0.007568501194428721, -0.001526234473489014, 0.0002881326210168551, -5.101284565071037e-5, 8.503825042265058e-6, -1.336799946490066e-6, 2.050028094277841e-7, -3.368000302728212e-8, 7.479719653157341e-9, -2.799622268380285e-9, -2.496165558017499e-9 },
            { 0.0, 0.0, 0.0, 0.0, 0.0, 3.189086933945881e-9, -7.624442818651948e-9, -6.853559015118616e-8, 1.571512045573216e-6, -1.956100303781991e-5, 0.0002047379072340583, -0.002090045393083959, 0.02630517414704319, 1.17027052371039, -0.557603856550461, 1.321902821862627, -3.739609154671544, 10.95378991095073, -31.75113323983479, 89.30215475090795, -241.2652092302579, 622.5075099862581, -1528.358676885264, 3561.386585184788, -7860.128885636543, 16399.58243697192, -32281.34647288795, 59808.22106998516, -103979.8756511147, 168944.8484330119, -255051.0309920078, 354637.019584321, -447719.7037056471, 500014.8855045586, -466664.5414050825, 304529.5577962417, 6904.721778329375, -441236.4905379477, 908441.9887052824, -1259693.123422779, 1323770.610769757, -972807.7171898508, 197839.3723013782, 839808.6733146401, -1815992.248831174, 2326460.643569067, -2027544.298995786, 783835.020597366, 1243099.355689286, -3614241.057858449, 5745264.496818315, -7103778.708564743, 7390473.10785537, -6629684.959651174, 5134457.787643818, -3369725.875398797, 1778593.087110448, -645340.924555151, 42510.23323840005, 134258.4163838564, -77317.06154857724, -27632.21848353392, 63832.75700036718, 737.6031433311318, -134865.0037153443, 281545.1706125843, -390971.0219573197, 438017.1627145217, -423418.3217464284, 364885.365033257, -285590.1789954966, 205406.1464698738, -136823.9198179384, 84868.04560027758, -49207.85332251531, 26744.68022990947, -13652.63359639796, 6555.098305606877, -2963.027277131556, 1261.634293049452, -506.1633131141222, 191.3442838214758, -68.14238691673687, 22.85206098179961, -7.212623087816718, 2.140980094485794, -0.5972049771424851, 0.1563958829006263, -0.03841557996474065, 0.008842265426534421, -0.001905725715177443, 0.0003844288431988902, -7.259800674934976e-5, 1.285711494474357e-5, -2.143836982165106e-6, 3.370634209597165e-7, -5.169050322555244e-8, 8.497317545964723e-9, -1.886587082108055e-9, 0.0, 0.0 },
            { 0.0, 0.0, 0.0, 0.0, 0.0, 0.0, 2.926781800470401e-9, -3.204867002848415e-9, -1.300844487321233e-7, 2.025278631704732e-6, -2.17394420636384e-5, 0.0002047792657516631, -0.001906655488539339, 0.02187999574550312, 1.132464882913649, -0.4162900604777928, 0.912390287914173, -2.404772768549395, 6.583893098928527, -17.87442304253724, 47.15253559049468, -119.6065355121118, 289.9422794015698, -669.0219936699347, 1465.129892346658, -3037.64546857763, 5948.429729562971, -10972.62243112944, 19005.21957474395, -30779.41095900388, 46332.56162548637, -64253.77957241669, 80915.97204486714, -90138.17271324067, 83870.65220754154, -54427.78047043072, -1764.75417365646, 79818.59861449455, -163442.2522478942, 225874.296143587, -236457.9822894278, 172485.9506885302, -32679.21935217036, -153678.6427939325, 328213.5703066939, -418386.8503211429, 362786.3825852992, -137530.1516471696, -227961.6793308024, 654565.7702116091, -1037321.348537697, 1280672.309536822, -1331190.836629983, 1193365.510315767, -923570.7676513079, 605405.0084637059, -318514.2446603033, 114022.9358544875, -5063.886153084255, -26996.12390504393, 16666.23884936284, 2662.085504338436, -9893.859144317423, -891.451294295704, 24245.89123076989, -50039.70918673844, 69389.55482252635, -77745.80341052113, 75188.05852503609, -64825.34613301302, 50761.62438233281, -36526.08936562938, 24340.4781854855, -15103.39865283787, 8760.352115394431, -4762.890998828414, 2432.156753741114, -1168.134340420729, 528.1748928107293, -224.9610889759359, 90.28165311716663, -34.13913972412035, 12.16157569319557, -4.079719743682373, 1.288053312024065, -0.3824635473191205, 0.1067179809787024, -0.0279567820776901, 0.006869090139571155, -0.001581606062512731, 0.0003409925852495637, -6.880744155488645e-5, 1.299840116111529e-5, -2.302689072920966e-6, 3.840594341901092e-7, -6.039305238714237e-8, 9.261849092077714e-9, -1.523280370862844e-9, 0.0, 0.0, 0.0 },
            { 0.0, 0.0, 0.0, 0.0, 0.0, 0.0, 0.0, 1.265001212005314e-9, 1.598390750554621e-9, -8.507884884928242e-8, 1.05841282685117e-6, -1.006693289033766e-5, 8.599887035754959e-5, -0.0007302768042119975, 0.007530111582174683, 1.047332013165042, -0.1388806556479125, 0.2773431763042682, -0.6784237361092584, 1.73368381879008, -4.406505420353319, 10.90032068090657, -25.95642918066449, 59.10544460728329, -128.1165195498343, 263.51620610396, -512.5849705585388, 940.4745915300482, -1621.671529365896, 2615.976763963838, -3924.998380248697, 5427.461013985943, -6817.194652314705, 7574.101165537635, -7028.699143072037, 4542.575786175104, 169.9411262344365, -6691.422492750164, 13651.80723077315, -18810.20650893217, 19623.416709663, -14207.75978946331, 2489.680921864376, 13059.98613739776, -27554.48961966031, 34953.97390336264, -30149.7809004616, 11185.0077441131, 19439.47939580248, -55111.15148775559, 87035.2064768211, -107312.7556712348, 111414.4216245757, -99804.5619387133, 77189.21468334366, -50538.70499567525, 26501.94167202665, -9358.269884116598, 216.7810240840918, 2480.227965409918, -1605.008297958302, -49.54056914015382, 713.3125842775407, 119.6817897306682, -2012.241256537964, 4130.214239325142, -5717.525876448111, 6408.876959608693, -6201.347939814557, 5350.795573393698, -4192.846697229048, 3018.145038734103, -2012.184832074301, 1249.161866681381, -724.7726318727946, 394.2103539897071, -201.3617136358807, 96.73717503212174, -43.76094372644275, 18.64414148859089, -7.483776320356981, 2.83109666929596, -1.008735575631249, 0.3385035661731255, -0.1069056763750798, 0.03175444346806788, -0.008863458454973216, 0.002322338701607946, -0.000570971412011026, 0.0001315141077652656, -2.83593895557589e-5, 5.725584939868532e-6, -1.081816411586242e-6, 1.917240042472426e-7, -3.198548619074308e-8, 5.03041933883827e-9, 0.0, 0.0, 0.0, 0.0, 0.0 },
            { 0.0, 0.0, 0.0, 0.0, 0.0, 0.0, 0.0, 0.0, -2.277019478021486e-9, -1.017093971873801e-8, 2.300839855994973e-7, -2.449161558921612e-6, 2.097154986831565e-5, -0.0001634248875844761, 0.001265654324576562, -0.01160946217998073, 0.9162420790270156, 0.2235342745217153, -0.3992838759985915, 0.9020808053875555, -2.148545296238581, 5.107214227933767, -11.8429739474501, 26.46479173368755, -56.56830534821279, 115.1246126968153, -222.0189240730524, 404.6143691421457, -693.8157730899184, 1113.902996289944, -1664.873531714416, 2294.509928507294, -2873.830656649254, 3184.033243794751, -2947.608338776641, 1900.051555340033, 72.08464322471991, -2790.904074123362, 5682.349743097089, -7808.505055473652, 8118.920224728296, -5832.688864224125, 935.1197245277872, 5534.151382548793, -11535.05082795746, 14560.66273393831, -12489.09119452606, 4523.865800185129, 8274.457325406838, -23151.80202622549, 36427.22359104315, -44850.93405025639, 46507.71684095357, -41628.16003989475, 32169.73725477094, -21036.33140661498, 10994.63247764809, -3828.323457126098, 6.363653492677258, 1122.668674843662, -751.1638356629301, 44.51303670595371, 256.2802493362396, 62.70259824425148, -827.9020594318572, 1697.256907622243, -2347.105340456794, 2633.109729826392, -2549.806928120961, 2202.126376388915, -1727.03670632001, 1243.657966569124, -829.544402524014, 515.2833128108978, -299.0527880565096, 162.7405510567805, -83.15171798437586, 39.95744860677769, -18.08642168096526, 7.707489344447367, -3.094272875874594, 1.171192880740506, -0.4173390443403235, 0.1401016854614969, -0.0442621434900099, 0.01315241902946829, -0.003672370334286468, 0.0009623869457158485, -0.0002367779378168386, 5.455903215114202e-5, -1.176623844508407e-5, 2.376934428740364e-6, -4.491824612974971e-7, 7.964105941959727e-8, -1.329052740246028e-8, 2.090409204516094e-9, 0.0, 0.0, 0.0, 0.0, 0.0 },
            { 0.0, 0.0, 0.0, 0.0, 0.0, 0.0, 0.0, 0.0, 3.342416566823389e-9, -6.517362390976797e-9, -5.690797504283621e-8, 9.338501723593238e-7, -8.824393896945818e-6, 6.880186958883091e-5, -0.0004912814580085821, 0.003473246278521996, -0.02821283955294351, 0.7416740810273279, 0.6117379303116826, -0.9514086877703036, 1.973184577883693, -4.368918881584108, 9.704008688568422, -21.0737223397357, 44.1552255391457, -88.50298581544394, 168.8891935488045, -305.0395955398599, 519.3455207441511, -829.3721506581714, 1233.297655213857, -1692.535068007754, 2111.836443740962, -2334.383143497078, 2155.955631965364, -1388.661582736422, -50.29022933090164, 2023.552651081525, -4109.750196886074, 5636.751986303949, -5833.56878899911, 4158.048555210815, -598.995382291032, -4081.638299291546, 8402.733488428756, -10540.7623561034, 8986.918078623712, -3174.601490392932, -6129.028232758516, 16897.97838747944, -26522.4103265116, 32558.59112055507, -33752.30923722126, 30184.34072328126, -23301.09230593918, 15209.35381625965, -7922.621031705639, 2724.749578340095, 55.32022344302095, -873.167925189613, 598.9831266419351, -74.54376210318878, -161.4825762578184, -54.91464458027667, 591.8959007383673, -1198.976663541776, 1671.379849372257, -1878.813337346946, 1822.727383411082, -1574.749616612622, 1235.150776044233, -890.6989647093578, 594.4906541731325, -369.280254502708, 214.5363736355175, -116.7507375431778, 59.69308155804902, -28.70738167932632, 12.98624102001145, -5.537630451003224, 2.22548199451785, -0.8420052219038467, 0.3003996698631326, -0.1008674270620595, 0.03187746379922007, -0.009474017168517701, 0.002646291419394098, -0.0006942355444092274, 0.0001706345367540017, -3.932417662182684e-5, 8.492173282257168e-6, -1.714423018721957e-6, 3.243357816435643e-7, -5.749427951858489e-8, 9.597246073368348e-9, -1.510144150213257e-9, 0.0, 0.0, 0.0, 0.0, 0.0 },
            { 0.0, 0.0, 0.0, 0.0, 0.0, 0.0, 0.0, 0.0, -1.947290953114881e-9, 7.219064493468928e-9, -1.074764998352395e-8, -1.366816423485498e-7, 1.889086447913859e-6, -1.625239096837098e-5, 0.0001165616932356575, -0.0007661304462120849, 0.00495615724929882, -0.0356721012368435, 0.5351556417416727, 0.9518817294857147, -1.232149635036748, 2.325674091671317, -4.771320022097882, 9.887203113087367, -20.08615163080663, 39.44024514412467, -73.99328696618795, 132.0978905271295, -222.8557014397848, 353.054231806891, -522.1612795591936, 713.4959118645493, -887.3061239281378, 976.9448001046549, -900.2953904500755, 579.7173953983583, 14.89877663040534, -828.4031073226943, 1686.931250638678, -2306.836001171381, 2383.098066843115, -1682.586519013625, 212.8881915238453, 1709.422922035272, -3473.840710069751, 4339.182887895964, -3674.473903860198, 1255.049322710373, 2587.494451588835, -7039.496487370459, 10980.78831520537, -13482.33367058588, 13934.19778329507, -12449.31398552842, 9599.851456241682, -6260.91888733604, 3245.839612235315, -1094.449109653826, -50.80635446768429, 388.1571911081046, -270.4761519959211, 46.78622635572538, 58.26282467113197, 18.87850714521392, -233.3498168074293, 487.7328898503329, -674.7812930528598, 760.0935395983979, -738.0045169155928, 639.256542519317, -502.6258477762167, 362.2697188358288, -241.9517973835755, 150.5652858664034, -87.41292898903339, 47.63302489608395, -24.35833199995795, 11.70948875157137, -5.309784881088945, 2.264037091521345, -0.9091346923381707, 0.3446320889044046, -0.122802925619105, 0.04125302088856841, -0.01304418421065634, 0.003880049754955373, -0.001084101203070176, 0.0002841799314023119, -7.00283437149278e-5, 1.615947412694167e-5, -3.48426692019818e-6, 7.050241173998234e-7, -1.332523363502269e-7, 2.36551746217134e-8, -3.950052288006616e-9, 0.0, 0.0, 0.0, 0.0, 0.0, 0.0 },
            { 0.0, 0.0, 0.0, 0.0, 0.0, 0.0, 0.0, 0.0, 0.0, -3.355651035036669e-9, 1.15975377041011e-8, -1.498321840909126e-8, -2.038645665618406e-7, 2.534806107709446e-6, -2.018761060076923e-5, 0.0001346139768247101, -0.0008166051329656643, 0.004846810720846584, -0.03106567200513144, 0.3210588321179788, 1.164428992200286, -1.147435052199768, 1.946789640421002, -3.683098311208141, 7.103806258703571, -13.45260221578792, 24.75033123214052, -43.41999355009466, 72.3120177823439, -113.6305300985478, 166.5972444123472, -225.8907188541052, 279.1690291411942, -306.6544599676854, 281.9283992920246, -181.7854215412081, -4.226562302370439, 256.0323365263175, -518.3852924038656, 709.8095650866162, -726.1851369126234, 508.1775437393226, -53.32689156613196, -539.6278864819906, 1080.709348674747, -1334.958202115027, 1122.602850219933, -373.3422171409475, -818.8830880249734, 2180.182056971593, -3407.04888831405, 4146.75512918504, -4301.868078952655, 3840.275602244772, -2959.239016500302, 1920.711345463293, -994.4595088284696, 333.4954602501239, 22.49794293092418, -125.4051475465239, 88.75286364397834, -18.92359535527066, -16.51369328308647, -7.827944845367711, 72.29184695490403, -141.5584242459154, 203.6605173836579, -230.3736837077304, 224.8532432150678, -194.3887638363522, 152.5187570231792, -110.4568346513552, 73.84964880760526, -45.81153112370521, 26.72435327857238, -14.54068219037072, 7.443507874566421, -3.58956709695849, 1.618919575058499, -0.6915033302997244, 0.2786699480935795, -0.1052626125067775, 0.03768455092017575, -0.01267194133306049, 0.004006803928707114, -0.001191080828028879, 0.0003330722012091503, -8.759609418820813e-5, 2.147632072716649e-5, -4.943633282386908e-6, 1.071906484417101e-6, -2.158498233566209e-7, 4.096375490867548e-8, -7.253226296161965e-9, 1.211134594724947e-9, 0.0, 0.0, 0.0, 0.0, 0.0, 0.0 },
            { 0.0, 0.0, 0.0, 0.0, 0.0, 0.0, 0.0, 0.0, 0.0, 0.0, -3.876710773639748e-9, 1.350846523968116e-8, -2.38552910535126e-8, -1.552195544110568e-7, 2.013746415823608e-6, -1.506514526727898e-5, 9.617381833976202e-5, -0.0005433387262241407, 0.002950732027046321, -0.01705195962073347, 0.1333418697035427, 1.188503339150486, -0.702781098788023, 1.052031908163144, -1.822268614411541, 3.285384041961152, -5.743094281488084, 9.849696415589278, -16.13498039315891, 24.85574235597596, -36.20747854620276, 49.03219905827427, -60.48779551920597, 65.94449111053837, -60.55865433227154, 39.07597893378261, -0.9372678747458849, -51.27380653790897, 107.6351279458031, -144.4312058447395, 150.3256124478066, -103.9743673943449, 8.809227651508991, 112.9434765166952, -223.4440354725812, 280.175448796479, -232.9686330575496, 71.16620659362525, 176.7391729754163, -471.8646620267536, 713.7434756783769, -893.0944175585173, 906.0524101783521, -803.4459965480492, 617.956090499647, -405.8355710306205, 207.1558371979045, -65.06862621288747, -7.345241148876084, 29.49414398810768, -20.62270267342683, 4.476354990176333, 3.4930120594654, -0.9747513154975422, -11.35760187248525, 32.7747092343925, -41.30725890485337, 46.93136872118339, -45.31841180787887, 39.81884253936005, -31.6389639484114, 22.64023822313175, -15.13025269494392, 9.58409764803946, -5.487442119883781, 3.009171561043331, -1.539315818119576, 0.7340715426726092, -0.3403584429170223, 0.144645006945666, -0.05752125690270304, 0.02209781661838406, -0.007784832046816348, 0.002611096703940774, -0.000828872551187132, 0.0002466076060603228, -6.900956025324145e-5, 1.798825071112897e-5, -4.52019634750514e-6, 1.049102491978808e-6, -2.236248855726902e-7, 4.616596324072842e-8, -8.607154514595936e-9, 1.544465695880497e-9, 0.0, 0.0, 0.0, 0.0, 0.0, 0.0, 0.0 },
            { 0.0, 0.0, 0.0, 0.0, 0.0, 0.0, 0.0, 0.0, 0.0, 0.0, 0.0, 0.0, -3.321907753213449e-9, 1.313831599937532e-9, -6.985001403669866e-9, 2.123939570330968e-7, -1.354349671300881e-7, 1.086548885975702e-6, -2.743038401220588e-5, 3.225021098884895e-5, -0.0007908947649681863, 0.004033090679314455, 1.012641232973067, -0.03185030512884168, 0.04455949787734426, -0.04478595525415585, 0.1355895730630436, -0.2023341503554548, 0.298185864732659, -0.5747394280260778, 0.7438099625724135, -0.75551857217215, 0.8200153159268666, -0.8693566619767807, 0.6074185922043398, -0.2975820118081174, -1.039204850065289, 2.702981006179471, -1.546976500889286, 4.992086370359175, -3.09657978778705, 1.242330085253343, 0.5538756608148105, -4.295777477382217, 7.474346528411843, -3.540132858790457, 3.639360756846145, -3.717886901227757, -2.098309675231576, -0.4619770098943263, -18.20879998058081, 0.02596313739195466, -11.17550320690498, 19.58868277771398, -11.91889418521896, 3.807106914231554, -2.994913405738771, 4.054854886024259, -0.7277230131730903, 1.05113217523467, -0.5226330385012261, -0.01451754913432524, 0.3301262522800243, -1.487256815997625, 2.723510930911289, 3.018284949008375, 1.015572429518215, -0.9922408918500878, 1.443680784082972, -0.9892406958970241, 0.5240322393656243, -0.5518581961805467, 0.4236188569338992, -0.09117628988315118, 0.1423680042353226, -0.0681696278952586, 0.03062013368071348, -0.0225336792300368, 0.002728622821905446, -0.002171339186588739, 0.00147017924228976, -0.0002723275866003405, 0.0002076636642698304, -7.198040501954495e-5, 1.932473608956542e-5, -7.181134591860427e-6, 1.79863740706887e-6, -5.500123367307985e-7, 4.052889565619999e-8, -1.195097432387521e-8, 4.579170991610843e-9, 0.0, 0.0, 0.0, 0.0, 0.0, 0.0, 0.0, 0.0, 0.0, 0.0 },
            { 0.0, 0.0, 0.0, 0.0, 0.0, 0.0, 0.0, 0.0, 0.0, 0.0, 0.0, -2.067866277841689e-9, 5.965970892220923e-9, -2.929254788296837e-8, 6.275733259453187e-8, 1.211660853595031e-7, -1.768182732453383e-6, 1.072055488782198e-5, -8.865086067899597e-5, 0.0003379906209843853, -0.002139477683869018, 0.009525614940770311, -0.05150985676226583, 0.6918209703077309, 0.6337992272224255, -0.6188841803723335, 0.9314727599648904, -1.392901866838656, 2.084531616241293, -3.182821175731078, 4.4152460682526, -5.593102021404775, 6.772036319569452, -7.149378099682508, 6.28862979717087, -3.962384819387808, -0.4722151054593269, 7.202873291680589, -10.14453562127892, 17.2906621262664, -16.63371875486337, 9.560723992763087, 0.3686434720584657, -14.56110226677265, 27.00246586848516, -26.72221174812876, 22.8643227617722, -9.15031921886839, -17.84469695866574, 40.40210576867685, -82.61090259999037, 78.85724320495501, -88.35498670069501, 93.42691895458847, -64.51895117200911, 37.89562602574006, -19.56988301686943, 9.487581602763385, 0.3084192078385968, -1.811783175297023, 1.219959077359817, -0.3865720741960104, 0.1194113878591452, -1.102928731198517, 3.801351308648009, 0.8432735097303521, 4.474315151397604, -4.777149158355314, 5.091164732351899, -4.375220936897676, 3.185686056880513, -2.456459952547448, 1.733390512512415, -0.899175362297683, 0.6061690552669461, -0.331243440414255, 0.1566461324528063, -0.08459667442002683, 0.03150728035825523, -0.01457087130972923, 0.006431342371740811, -0.002165383053892356, 0.0008821307959152591, -0.000296734425710099, 8.962906683951388e-5, -2.924167647933018e-5, 7.723590273844838e-6, -2.086660413042063e-6, 4.112670022454745e-7, -1.057522996646479e-7, 2.353801432973882e-8, -3.629535858331884e-9, 0.0, 0.0, 0.0, 0.0, 0.0, 0.0, 0.0, 0.0, 0.0 },
            { 0.0, 0.0, 0.0, 0.0, 0.0, 0.0, 0.0, 0.0, 0.0, 0.0, 0.0, 3.026182651634426e-9, -1.500228658641266e-8, 4.500370755829847e-8, -1.551594874735218e-7, 4.465908712142364e-7, -9.823891314320043e-7, -4.177917413805687e-6, 4.272523385751015e-6, -0.0001664717591189913, 0.0003471859982582259, -0.002111059929660541, 0.009430228020789855, -0.04278955549841612, 0.3347329058947253, 1.068200938449991, -0.6971081118936127, 0.8780229951371439, -1.244595843876596, 1.633656479825731, -2.253874962087139, 3.100943655066658, -3.579980645154137, 4.031542793760309, -4.02239640490734, 2.749963924383337, -0.6487354749406222, -0.8448431008146144, 6.753415312967263, -5.51587496465072, 5.506178697338328, -5.812217520666309, 0.2364592023077421, 4.709197991236579, -9.823165707523003, 17.79537501535378, -12.51437708549201, 0.04376726597547531, 14.30344097624766, -36.769543195609, 35.37056594295427, -61.55682593863457, 57.7329104533419, -32.27772511262447, 33.55866368534043, -25.51053036749363, 12.1890408245381, 0.3346787728951313, -2.166864688035275, 3.678350101843535, -2.555745529003616, 0.3176456699802657, 1.600914432419813, -1.713472230536809, 2.827154565151432, 4.20938598291832, -0.9048321642330848, 1.944860987947322, -1.585111444350332, 1.438182875339407, -1.433619439078029, 0.965047589095775, -0.5515024212509161, 0.5496251010554261, -0.2369839290040545, 0.1280376908762264, -0.08165081616971293, 0.02949174017885525, -0.02011450925601821, 0.007599721851875074, -0.002478087063025214, 0.001242403244788193, -0.0003292600378372867, 0.0001118534618456124, -4.213916989481703e-5, 8.607598078747003e-6, -3.182164919457442e-6, 7.771678970924789e-7, -3.126382144245932e-7, 5.3123917199277e-8, -1.18768994541562e-8, 3.695268096560751e-9, 0.0, 0.0, 0.0, 0.0, 0.0, 0.0, 0.0, 0.0, 0.0 },
            { 0.0, 0.0, 0.0, 0.0, 0.0, 0.0, 0.0, 0.0, 0.0, 0.0, 0.0, 0.0, -3.696090396200155e-9, -2.173008183115055e-9, 7.705374359401329e-9, -1.003561772711103e-7, 2.220819123599505e-7, -5.955436438220829e-6, -6.012588824155785e-6, -8.736809378007138e-5, -8.205482031797828e-5, -6.882311595290957e-6, -0.0003484163260623063, 0.004239519371935785, -0.00475820725569065, 0.07303185375985777, 1.107259190463083, -0.2708088190920535, 0.2686968432681169, -0.4443754798776354, 0.5665300734690391, -0.4788629824179225, 0.7431873303721659, -0.5002164017350879, -0.1298331852885894, 0.2835060693178093, -0.581884262690437, 2.612199938856065, -0.02733034698758274, 3.497038319241256, -3.922541354899295, -0.2876061755232513, 0.8447515906009357, -4.156935717386659, 5.755896426970139, -0.01311147469095886, 1.78773339628242, -2.778885946143419, 0.7055431180051528, -2.723665925208479, -14.96285985177383, -0.145756920799613, -5.278194139245898, 24.4258535974659, -8.31224683765322, 1.249397102510557, -1.475469968281686, 4.186441258178093, -1.134065429330803, 1.47321188726346, -1.079637569651823, 0.1093275647435803, 1.346837634308031, -0.9214295081696946, 3.027217482071137, 2.643222556507681, 1.300272023421712, -0.5127731748507358, 1.046925110800657, -0.9320856562117115, 0.5653104862722103, -0.4267202653281856, 0.400733903501532, -0.03896843121037818, 0.1100599971177871, -0.06363081626841449, 0.01622278354807349, -0.01913669401074003, 0.00185281588073849, -0.001535661100660946, 0.001252092062713928, -0.0001660607140081538, 0.0001936901346866193, -6.163538771986055e-5, 1.135423227882626e-5, -8.773610834511558e-6, 1.439422925519906e-6, -4.388519508485844e-7, -2.688708055850753e-8, -1.826979868085887e-8, 2.841201259071863e-9, 0.0, 0.0, 0.0, 0.0, 0.0, 0.0, 0.0, 0.0, 0.0, 0.0 },
            { 0.0, 0.0, 0.0, 0.0, 0.0, 0.0, 0.0, 0.0, 0.0, 0.0, 0.0, 1.044611856217126e-9, -5.560147182948061e-9, 3.78089524705888e-9, -3.480232557348528e-8, 1.981390519711912e-8, -3.816882310214709e-7, -4.511992363287476e-6, -1.179068108569936e-5, -7.457292679546867e-5, -0.0001148447464061064, 2.328241058080494e-5, -0.0003359750857612198, 0.003686009546754576, 0.0004562662293210451, 0.03286447804566706, -0.03771609480463667, 0.7349856036853453, 0.4886714337117155, -0.4986704046968953, 0.5973397613852285, -0.4394175114430254, 0.7701973148214165, -0.5147160040214658, -0.03436665772460401, 0.0004060019564349204, 0.1363061534648295, 1.679575384478085, 1.334472757414915, 2.147543162223883, -3.02309560123831, -1.064665814861655, 0.8476464670093264, -3.485782238654792, 4.355997428414412, 2.166786996414885, 0.3595655574463308, -2.554813123308122, 2.297153991588857, -5.63862425996922, -8.586066886316985, -5.944272312801331, 0.6021746294572949, 19.1428640591912, -3.059303069487214, -2.262093747034669, 0.0360456274356693, 3.554117051477078, -1.192930446581158, 1.716141455501202, -1.27242584976193, -0.08365382214105921, 1.493757022202772, -0.9963647723739086, 3.106240818378865, 2.326609144278336, 1.212696375034284, -0.08171480364399031, 0.8675512358313426, -0.7116094895754941, 0.4468874268932268, -0.3290732189780101, 0.326630224037217, 0.007929320534458384, 0.07732361566741019, -0.05301155074266717, 0.005040486363213859, -0.01457396533169231, -9.123615564021748e-5, -0.0005457353540805343, 0.0007933081548117116, -2.361923898774876e-5, 0.0001426135695865582, -4.179038496232579e-5, 5.487061945252947e-6, -7.700921323072762e-6, 1.063007447843489e-6, -3.032610335490515e-7, -5.998726921793707e-8, -1.210097375602126e-8, 0.0, 1.081232333755098e-9, 0.0, 0.0, 0.0, 0.0, 0.0, 0.0, 0.0, 0.0, 0.0 },
            { 0.0, 0.0, 0.0, 0.0, 0.0, 0.0, 0.0, 0.0, 0.0, 0.0, 0.0, 1.383970982629136e-9, -6.524025183149776e-9, 7.377967610987246e-9, -5.337447838912879e-8, 8.784440475029243e-8, -6.699372650520452e-7, -4.277842926780906e-6, -1.228172748302114e-5, -8.267072250589536e-5, -0.0001036677040673339, -0.0001075793628046995, 0.0001468190958462401, 0.001832009524605382, 0.006527109508624562, 0.009624262478610035, 0.04829330557913636, -0.09203068714487017, 0.3495105711117503, 0.8615467011477449, -0.2586482903716387, 0.4879109139728826, -0.1385228626022581, 0.5205401499697473, -0.9540152742702048, 0.9412390029829112, -0.2734701387526002, 1.728690375923179, 1.741724467719905, 1.641021949937567, -2.696396595565602, -1.076164347003214, 0.2773943502979819, -1.973664384393487, 2.377904542023316, 4.700053480919451, -1.198899751761928, -2.332569358753972, 3.612256952328607, -9.334229045314714, -1.827255274169147, -12.28015731647611, 6.206945797428489, 12.33371131215245, 1.890374736860394, -5.705106479115784, 1.762043286347762, 2.667483342287596, -0.9338694030811894, 1.354916739503096, -1.210087965078856, -0.6251064384559868, 1.549392582383007, -1.11638955824219, 3.047103591481573, 2.474328794050962, 0.7874110990669578, 0.7173817621078342, 0.4149224497377872, -0.3341113330679946, 0.1112951898248866, -0.12595441902522, 0.1820363758888561, 0.0960399378236616, 0.02955155182280578, -0.03001797834440367, -0.01186144252642407, -0.006991938316787127, -0.003286465322162258, 0.0008108960466870485, 0.0001512506971153016, 0.0001947572154392674, 7.263043050187434e-5, -1.669070378795823e-5, -3.082083114946954e-6, -5.607259894180316e-6, 4.335787374687428e-7, -8.312222876671882e-8, -1.014067009252884e-7, -1.718829290703328e-9, -1.886599881525952e-9, 1.526046683171609e-9, 0.0, 0.0, 0.0, 0.0, 0.0, 0.0, 0.0, 0.0, 0.0 },
            { 0.0, 0.0, 0.0, 0.0, 0.0, 0.0, 0.0, 0.0, 0.0, 0.0, 0.0, 1.210765094086796e-9, -5.52659774606494e-9, 1.237633761967671e-9, -3.282221628514437e-8, 5.334239436272092e-8, -4.488304533589726e-7, -4.706622102723657e-6, -1.038003203923665e-5, -9.017433266222952e-5, -0.0001169006418422214, -0.0001534313216211558, 0.0001087962194219472, 0.001792086505361112, 0.00531887011584331, 0.01234864179605211, 0.03534199784007797, -0.03678415675676661, 0.04770605225348845, -0.1336789826018503, 1.255076436733361, -0.002078724501188844, 0.4339757784036919, -0.13537829706911, -0.1086621169233695, 0.2051152424319298, 0.7133545226242859, 1.004144377307966, 2.465695625403896, 1.120110405376181, -1.969592237612233, -1.516324845841154, 1.037347422126913, -2.82126163400244, 3.370880538597703, 3.903307473286986, -0.8747841578442603, -1.743312908452936, 1.935888142848853, -7.244645291473716, -3.742360474541783, -9.443510555196553, 3.672430401667953, 12.28999844612554, 0.4326183581724763, -4.599524212768301, 0.8494457576889545, 3.255681943322998, -1.489196549555345, 2.010422723433294, -1.979454741758673, 0.0736600978198112, 0.6070582773900242, -0.6547814146315432, 2.834413116972428, 2.383366628811928, 0.9216428773943335, 0.7286949218250811, 0.5755693478276953, -0.4884099205373786, 0.2252638995123561, -0.2400300455337856, 0.2592178211052669, 0.05368490271212067, 0.05602529637690168, -0.04506599661908695, -0.004601783944963245, -0.01094735547212622, -0.002103533646277356, 0.0003360457573080566, 0.0004212176166902282, 0.0001176138135576821, 0.0001131187481533402, -2.857441754855472e-5, 2.576936770637417e-7, -6.496460717375641e-6, 7.708090066782525e-7, -1.393359536916439e-7, -7.464543284180225e-8, -5.270482151403799e-9, -1.031353637475502e-9, 1.24573288273408e-9, 0.0, 0.0, 0.0, 0.0, 0.0, 0.0, 0.0, 0.0, 0.0 },
            { 0.0, 0.0, 0.0, 0.0, 0.0, 0.0, 0.0, 0.0, 0.0, 0.0, 0.0, 1.323858775370817e-9, -6.472012546547556e-9, 2.642680838917111e-9, -3.807978076267315e-8, 1.266165760155369e-7, -4.946328796551214e-7, -2.609216904092548e-6, -1.288753243589014e-5, -8.035407354611834e-5, -0.0001742723423276971, -8.49500154913585e-5, -0.0002756483569328338, 0.002079187521417225, 0.003342673685892805, 0.01527040083510656, 0.02672152419108897, -0.01351568743484677, 0.01907971860782709, -0.02820910866284976, 0.004197611953713931, 0.7962484498566482, 0.7948195958160795, -0.07698485808214173, -0.2820814324950334, 0.7832563321862835, 0.1850145887583494, 2.091252460086253, 1.111796125071123, 2.201328163733706, -2.550568045000546, -0.6620471335481852, 0.9904470457113348, -3.483179108879995, 4.483138230163604, 1.928123444551602, 0.5636857694480568, -2.79369712935295, 2.414280575001612, -8.159770169528201, -3.990811628289521, -9.33076121006161, 3.025021514855325, 10.89580751257017, -1.935335271991789, -2.750105323269963, -0.7045304155908525, 4.277364742534701, -2.226710900031321, 2.329862154118018, -1.831968667516776, 0.03712847597489599, 0.6117083005738095, -1.056366484051978, 3.322729656880256, 1.796449405024759, 1.450936198991258, 0.2699922427418642, 0.8749658446758986, -0.6664487981470302, 0.3647077938658185, -0.350101612508297, 0.3321676346240565, 0.01801889979833504, 0.07156035894149682, -0.05146475094443304, 0.002377910872382927, -0.01437589439592557, -0.001607459773822484, 0.0001908648258677204, 0.000672715467544549, 6.699282349131863e-5, 0.000133123554732606, -3.581492247306528e-5, 3.100901134978074e-6, -6.560270297883974e-6, 1.020887924363389e-6, -1.896295253739355e-7, -5.033295088358036e-8, -7.945287192057116e-9, 0.0, 1.011567936294762e-9, 0.0, 0.0, 0.0, 0.0, 0.0, 0.0, 0.0, 0.0, 0.0 },
            { 0.0, 0.0, 0.0, 0.0, 0.0, 0.0, 0.0, 0.0, 0.0, 0.0, 0.0, 1.430283582271995e-9, -7.486558279562461e-9, 4.105383693588094e-9, -3.578113778532344e-8, 1.64286802523117e-7, -4.172666890900345e-7, -9.937743006283029e-7, -1.305387869354746e-5, -7.866267196021681e-5, -0.0001965524442084643, -6.598600256779719e-5, -0.0004182700221804225, 0.001614229819665525, 0.002982141710162978, 0.01383090907984297, 0.02940297036911943, -0.02080523838230874, 0.06172060308745131, -0.07074744471174199, 0.1257531554001616, 0.04385205687140115, 0.3858526224503294, 0.9982028579106554, -0.05532219025189988, 0.4785696451581316, 1.047686939957202, 1.127020345476922, 1.973358770948835, 1.052338999696076, -1.157431984203868, -0.8066744086099789, 0.8331111497827806, -2.737037166720256, 2.927246894221753, 3.185562679311261, -0.9970112012233585, -2.084510949673131, 2.858310273557436, -11.47360533382744, -0.05501720122992992, -14.71864186739549, 9.091331724077463, 3.412159300874919, 1.122237474191934, -5.26245404058136, 0.7405993251595646, 3.493373429228086, -2.14034096665273, 2.292764086574607, -1.897923371558136, 0.489121840626467, -0.03330543395713903, -0.6608192261878685, 2.795597491960507, 2.1822055663215, 1.117260188737419, 0.5467281450983137, 0.6301220653695054, -0.4096213770098984, 0.1583094692323357, -0.2493931333592627, 0.243519059906248, 0.06511779796710471, 0.0422113868771703, -0.03279200997349108, -0.001281579967326252, -0.01199379557056091, -0.003514884981996147, 0.0008503818348799541, 0.0005539918718113768, 0.0001537258398229824, 8.995455132065899e-5, -2.39055225499385e-5, 1.813543750728286e-7, -4.37752769588684e-6, 7.418956350369044e-7, -1.100211291793496e-7, -5.568391824722907e-8, -3.020008620784054e-9, -1.20099560786853e-9, 1.110775383510784e-9, 0.0, 0.0, 0.0, 0.0, 0.0, 0.0, 0.0, 0.0, 0.0 },
            { 0.0, 0.0, 0.0, 0.0, 0.0, 0.0, 0.0, 0.0, 0.0, 0.0, 0.0, 1.00366834331414e-9, -6.22439328312914e-9, -1.994108224899482e-9, 0.0, 3.097654754924406e-8, 1.081179243356267e-7, -1.520308805735837e-6, -7.853421145398443e-6, -9.898709296862762e-5, -0.0001694985201581289, -0.0001545887834595305, -0.0001444017168523715, 0.0005695606579365631, 0.003954448750391748, 0.01086257284532621, 0.03214865519112209, -0.02934307287432603, 0.09554396723251557, -0.0895378101413371, 0.1181335072469665, -0.03366322934743948, 0.3689668544393498, -0.2213679828564636, 1.164284384722123, 0.925615185231436, 0.9417111552174902, 1.541668496385682, 1.21679885359481, 1.524700160021894, -0.9655969822779298, -0.4648516775341704, 1.297304090607213, -3.752329828043003, 4.243844052543864, 1.484586640959606, -0.3830477765295655, -1.871435843873769, 0.8874514959170483, -9.655848363647237, -3.788962253835052, -10.9929514718242, 5.12801247369498, 5.575983644928783, -1.696928572375327, -3.879924380686134, -0.09057809435762465, 3.671296205488034, -2.127124181955878, 1.801392051900621, -1.475321702564543, 0.3617675420100568, 0.04928119635587791, -0.7680897870286572, 2.867398082104046, 2.164900079835206, 1.383602100831922, 0.3133262543124147, 0.8813448791042902, -0.5641127647249959, 0.2444397334184032, -0.3230134265031666, 0.2676983712735819, 0.02942592561885249, 0.05915429612650769, -0.04197121278048144, 0.006617096421905444, -0.01454641340478702, -0.002563318607826659, 0.0003497272216463898, 0.0008385683638039154, 3.723949478739996e-5, 0.0001148053092734358, -3.096255395362846e-5, 4.991370020412944e-6, -4.09417974123194e-6, 1.020466464607406e-6, -1.707272485468314e-7, -2.272730519059518e-8, -6.68712492497836e-9, 0.0, 0.0, 0.0, 0.0, 0.0, 0.0, 0.0, 0.0, 0.0, 0.0, 0.0 },
            { 0.0, 0.0, 0.0, 0.0, 0.0, 0.0, 0.0, 0.0, 0.0, 0.0, 0.0, 0.0, -6.698528594653586e-9, 1.537338113581643e-9, -7.353893102107767e-9, 7.043779878812551e-9, 5.319295381944755e-8, -5.868921633123136e-7, -9.036156471964318e-6, -0.0001029933978813347, -0.0002009790379631227, -7.926945423264442e-5, -0.0001853962182281066, 0.000597654245780177, 0.003103683143763192, 0.01304188070571399, 0.02293054228539404, -0.01849248264989001, 0.08716629782429663, -0.05670981285220478, 0.005445889983093366, 0.02465868070430588, 0.1790048646216746, 0.07404005608987063, 0.2377524622133933, 1.144077542994637, 1.745056539279176, 1.881378489721101, 0.2915980595862493, 2.32361834065523, -1.057040426647291, 0.3431974513223395, 0.9050994454592001, -3.725860989652574, 4.738297125324607, 0.678270198404789, -0.1984866661950946, -2.363377681933343, 0.4409153060987592, -9.341180065181106, -5.088038709945977, -10.67993216961622, 4.191228784620762, 6.931711878627539, -2.987337263766676, -3.223614763468504, -0.5284298867918551, 3.748985705024097, -2.021026581292972, 1.409874984303315, -0.8282976599293761, -0.1948921865114244, 0.5934430061024614, -1.055680510188267, 3.038408689157222, 2.281951220415067, 1.517095718241762, 0.2407686557271518, 1.02286087005632, -0.4966606898815371, 0.2212840968859382, -0.2995474344061222, 0.2207697757403366, 0.02878397498716367, 0.05048836141213542, -0.03840329441300128, 0.00786652203896665, -0.0132026995979686, -0.003045783461402607, 0.0004951900887135707, 0.0008976667598972199, -8.308664405376476e-6, 0.0001216276759095081, -2.548267782032099e-5, 7.265489041508033e-6, -2.888349345253616e-6, 1.016659060992797e-6, -1.539127885835656e-7, -9.016253667282204e-9, -6.177032459316056e-9, 0.0, 0.0, 0.0, 0.0, 0.0, 0.0, 0.0, 0.0, 0.0, 0.0, 0.0 },
            { 0.0, 0.0, 0.0, 0.0, 0.0, 0.0, 0.0, 0.0, 0.0, 0.0, 0.0, 0.0, -6.755048784657519e-9, 3.460646825527436e-9, -2.846785990967549e-9, -4.284153304334737e-8, 1.8540464075123e-7, -2.72701549119958e-7, -7.978677236231135e-6, -0.0001108295443117413, -0.0001944822554733605, -0.000104597951803953, -7.837224131890252e-5, 0.0003846373426767968, 0.003337329971145664, 0.01173121655847353, 0.02307598869811045, -0.02296095152996713, 0.1143434283512761, -0.09221725194947794, 0.02592453788383864, -0.1212889094895218, 0.3672587305482011, -0.2517042497638613, 0.8486989264783915, 0.470550480968086, 1.464378778386163, 2.193842252134345, 1.117745878640562, 1.444247553241439, 0.2699754048371688, 0.07625034986995161, 1.010594219551422, -3.621079602977261, 4.576718613272533, 1.026290227193385, -0.8664422335568815, -2.133232769439928, 0.3795773283345625, -10.37447433965281, -3.597041534725577, -14.33284327480942, 6.788341076113284, 4.060487790033221, -1.317737873643637, -4.259070307482034, -0.1182802638504654, 3.93007738457527, -2.793376277317293, 2.26261671820248, -1.781411030773597, 0.7488183220266365, -0.0830441542857443, -0.5206864561346265, 2.571755716577172, 2.726730724534718, 1.517798431916162, 0.2625957496347837, 1.162110158475116, -0.4744131942279637, 0.2067891243787017, -0.3163594961806666, 0.1874954753584461, 0.01969604502664879, 0.04966185685043456, -0.03437581616526586, 0.01135823957702087, -0.01354406853715773, -0.003177800440425926, 0.0005263532517574276, 0.001040946916759822, -7.146429135218568e-5, 0.0001340968923599917, -2.408202062298415e-5, 9.362210495744705e-6, -2.19891585784282e-6, 1.093133351670605e-6, -1.642793886064142e-7, 2.404226519259201e-9, -7.160786822876797e-9, 0.0, 0.0, 0.0, 0.0, 0.0, 0.0, 0.0, 0.0, 0.0, 0.0, 0.0 },
            { 0.0, 0.0, 0.0, 0.0, 0.0, 0.0, 0.0, 0.0, 0.0, 0.0, 0.0, 0.0, -7.152281731497359e-9, 5.950939724504167e-9, -8.303416888094661e-9, -1.261027193777409e-8, 2.423962654485301e-7, 7.212426156311125e-7, -8.764794626081596e-6, -0.0001073613454174449, -0.0002029349366949873, -7.471913050949297e-5, -0.0002220013159330847, 0.0004329110965954897, 0.002615903163132316, 0.01228956802788161, 0.02065981381747406, -0.02199528728669975, 0.122054859646596, -0.08159047937078867, -0.0234146824805066, -0.07951662177219987, 0.3009856965509243, -0.2250453635642771, 0.8774311197048519, 0.5861429134092759, 1.55581254849676, 1.387740250211209, 0.5868521697120741, 2.699877517065033, 0.07146210735663772, 0.5802378208609298, 0.816365815611789, -3.64072801975999, 4.867538804421201, 0.06878954241983593, -0.5160095822066069, -2.415148046100512, 0.8194993154029362, -10.70827202498913, -3.974898442160338, -15.43490408733487, 6.226649379357696, 2.51939453324303, -2.394134101457894, -4.49303235579282, 0.009706679731607437, 3.734724761394318, -2.60796292006853, 2.008161149620719, -1.711609163736284, 0.9766852970351465, -0.2450339472998166, -0.4385937696092697, 2.190956566075329, 3.094909845502116, 1.385218567913398, 0.3597067109076306, 1.022223958047107, -0.3407872808165848, 0.06661736773094162, -0.276926906342851, 0.1350372776214499, 0.03675776643649442, 0.03373889859358314, -0.02293334808564396, 0.01106551464908989, -0.01428621601553459, -0.003949545054183545, 0.0009396464263318194, 0.001070855313514585, -5.02081031754642e-5, 0.0001154784239005835, -2.173730706900301e-5, 9.418765730018208e-6, -1.607007455550757e-6, 1.03683594732118e-6, -1.757614093017557e-7, 6.478691177286278e-9, -5.701394275095528e-9, 0.0, 0.0, 0.0, 0.0, 0.0, 0.0, 0.0, 0.0, 0.0, 0.0, 0.0 },
            { 0.0, 0.0, 0.0, 0.0, 0.0, 0.0, 0.0, 0.0, 0.0, 0.0, 0.0, 0.0, -7.268679921412086e-9, 6.122722032500527e-9, -1.810979142341518e-8, 1.740035028563458e-8, 3.22407838260208e-7, 1.661062802860158e-6, -8.970327900925668e-6, -0.0001005610395061751, -0.0001992854350660878, -4.465081138960159e-5, -0.0003504160343936746, 0.0005719796914718245, 0.001992723515286343, 0.01266840421067172, 0.01855867242375098, -0.01900994828974945, 0.1228342046160833, -0.06610354242729954, -0.080629330012016, 0.007611990135046653, 0.1871665247890633, -0.1302285928104538, 0.7077206483227201, 0.8782318539524567, 1.293836083554197, 1.738519693783019, -0.166600895114243, 1.960380969918333, 0.970357388490811, 1.233452446060255, 0.4437500484928023, -3.358471471408848, 4.834381279768422, -0.5143353492021561, -0.3788735838606954, -2.614417962846346, 1.370491742214654, -11.62715229019523, -3.447274724952877, -16.44876941526309, 5.767461990937591, 0.9832375911064446, -2.468403262086213, -5.013187943957746, 0.2345653020311147, 3.22388604603475, -2.118438602003152, 1.546704834450793, -1.168117126278958, 0.7600904952123528, 0.02283144561079098, -0.769757938658131, 2.248339192607091, 3.025696548429551, 1.550170687201899, 0.2655041694524698, 1.011330743203871, -0.2635725844884291, -0.007233608717797324, -0.2631479090778157, 0.1149211955198552, 0.04148492476087995, 0.01966104411985725, -0.01263502924120985, 0.01007870973808167, -0.01552813796297414, -0.004590548251599103, 0.001476686896808133, 0.001055517681095353, -1.085629662611609e-5, 9.45704363743971e-5, -2.051321830620623e-5, 8.93216714192846e-6, -1.363475314430929e-6, 9.136609366300341e-7, -1.915777923244821e-7, 1.572462327015245e-9, -2.66374594690838e-9, 0.0, 0.0, 0.0, 0.0, 0.0, 0.0, 0.0, 0.0, 0.0, 0.0, 0.0 },
            { 0.0, 0.0, 0.0, 0.0, 0.0, 0.0, 0.0, 0.0, 0.0, 0.0, 0.0, 0.0, -6.711425042668986e-9, 4.069477048743164e-9, -1.55700080883836e-8, -1.594778864522084e-8, 4.372477097613903e-7, 1.231438316873223e-6, -7.763898522306079e-6, -0.0001070568079768464, -0.0001701435874252866, -0.0001067502280989174, -0.0001926190577137277, 0.0004330690123879322, 0.002341645535580028, 0.01047760622714122, 0.02158260149008129, -0.03173095162492245, 0.1411113951035077, -0.1117585826286813, -0.04048393198172562, -0.05090344144264236, 0.2438506936305203, -0.3052821167220827, 0.8493983122752979, 0.7305454067682149, 1.255193905657507, 1.693508789932821, -0.2695850159507245, 2.258368639508262, -0.003332658554427326, 1.205332575249486, 1.408435198944062, -3.482762569095939, 4.945109147112817, -0.3600325586739928, -0.5186569672077894, -2.277200192795135, 0.9813034821418114, -10.68677155161276, -3.478554986882955, -15.9696572907269, 3.994561061263084, 2.842743054963648, -2.030724870041013, -5.043328010942787, 0.09624226274900138, 2.988470953772776, -1.992975601548096, 1.576266133495665, -1.221719332854263, 0.9858058957761386, -0.288539742512512, -0.4640351627767814, 1.89820698958647, 3.329320446762722, 1.452232459443621, 0.5300651799188927, 1.007894162787125, -0.2203890333184972, -0.07428602711297572, -0.2489905250258744, 0.1123226569179678, 0.03069071876961971, 0.02299078550277045, -0.01278507139068097, 0.0104028180885507, -0.01655559164828446, -0.00419936489970496, 0.001423120068693606, 0.001154338335368266, -2.159151938485593e-5, 0.0001100030329297397, -2.494614379244808e-5, 1.015853651509246e-5, -2.022011852842454e-6, 9.588653169245731e-7, -2.520050224191772e-7, 1.786981975587798e-9, -3.523122060582196e-9, 0.0, 0.0, 0.0, 0.0, 0.0, 0.0, 0.0, 0.0, 0.0, 0.0, 0.0 },
            { 0.0, 0.0, 0.0, 0.0, 0.0, 0.0, 0.0, 0.0, 0.0, 0.0, 0.0, 0.0, -7.531023192217101e-9, 8.306293531462616e-9, -4.105200341122939e-8, 4.42627818147967e-8, -3.899474132484926e-8, 1.642267284385213e-6, -1.237704352785585e-5, -0.0001002980259983133, -0.0001909825498600526, -4.369604894804979e-5, -0.0002549329861381011, 0.001136317836653689, 0.0008752686940169951, 0.01281900607500575, 0.01318989318315289, -0.02386074046444264, 0.1144655800599139, -0.1145504781743512, -0.05303268354327884, -0.03530317875265609, 0.1765209928271361, -0.3337606170389336, 0.805043776112143, 0.730017305657384, 0.9588708136870991, 1.53228929155739, 0.01545690989587456, 2.274143332615495, 0.2609473883640021, 0.630090928520076, 0.3715957325766794, -2.108981388737448, 4.716478364542127, 1.029923208756372, -1.051226657349616, -2.054370996193029, 0.9065704288077541, -11.37004361627623, -0.1380370710976422, -18.57323544286191, 5.406849821098149, 3.724928531330079, 1.28874543402344, -6.513075496535748, 0.5286329686641693, 2.768975931918249, -2.038561850808037, 1.496907365341031, -0.940423025887867, 0.3474807028906071, 0.2455722686936497, -0.9129505074042754, 2.273979435412912, 3.113673741725506, 1.612885040638503, 0.7881423956714571, 1.100516637554392, -0.1809821210918017, -0.1272809983347543, -0.1699256882420741, 0.07395605709461961, 0.0501820253994083, 0.008260245078417938, -0.008977850222436246, 0.003057087771594524, -0.01236427959702269, -0.004929068468300102, 0.001724955258964656, 0.0009332695425428028, 4.172522045564619e-5, 9.400821886629274e-5, -1.352837736234846e-5, 7.096738879219799e-6, -1.589497071297075e-6, 6.365454006673765e-7, -1.984068473959155e-7, -2.651738184242247e-8, 1.576918818614603e-9, -1.291418220625284e-9, 1.175985608425998e-9, 0.0, 0.0, 0.0, 0.0, 0.0, 0.0, 0.0, 0.0, 0.0 },
            { 0.0, 0.0, 0.0, 0.0, 0.0, 0.0, 0.0, 0.0, 0.0, 0.0, 0.0, 0.0, -5.801784741651592e-9, 1.721574886988375e-9, -1.311380722068822e-8, -7.850171553080987e-8, 2.947057405888742e-7, -2.299681600703707e-7, -7.805789903336802e-6, -0.0001148325255080351, -0.0001341819077751438, -0.0001533597547620502, 6.568694169573064e-5, 0.0004514137823434794, 0.002351600093788875, 0.008600028381806624, 0.01755988118748064, -0.0412160536434385, 0.1254507340272539, -0.1739379062564694, 0.03280489656026475, -0.1307430838642176, 0.2795190191827714, -0.5379285987582989, 0.8761615024704952, 0.6986121203881339, 0.5023801796487533, 1.690891567966901, -0.1306530173169449, 2.947217637905851, -0.2091375009622425, 0.3466991670429707, 0.8949839987035375, -3.712726250407286, 5.392501714406535, 1.743400998646393, -0.7472925744950771, -1.881644923938438, -0.8588840389857069, -8.175876368768513, -2.034457019064575, -13.2227614284493, -0.6754664238542318, 11.5981151512824, -0.2415573387406766, -4.434136820957065, -0.914487243629992, 3.388119677023496, -2.367256646219175, 1.784141935575462, -0.8975857613841072, 0.05140327786648413, 0.3072012725897366, -0.8020237839618858, 2.346243841428077, 2.938467549247434, 1.703290324658155, 0.8974977126927115, 1.346696723834611, -0.3007993767387234, 0.02579485633759759, -0.2228405781497713, 0.1530900398502126, 0.006397571545676328, 0.03729168177960673, -0.02722447833002661, 0.007954725733725354, -0.01406810975549888, -0.002692697707971092, 0.0008627381681662882, 0.001121566942742902, -7.396525813874177e-5, 0.0001356042856457407, -2.768067749769898e-5, 1.188309924593511e-5, -3.515578398172181e-6, 9.693467629134922e-7, -3.087827469550053e-7, -1.921265459225996e-9, -2.77564774116279e-9, 0.0, 1.011509885887833e-9, 0.0, 0.0, 0.0, 0.0, 0.0, 0.0, 0.0, 0.0, 0.0 },
            { 0.0, 0.0, 0.0, 0.0, 0.0, 0.0, 0.0, 0.0, 0.0, 0.0, 0.0, 0.0, -5.796015506952246e-9, 0.0, -1.329740084710096e-8, -3.328348616160604e-8, 3.029947444610492e-7, -3.536106327750588e-7, -7.517997498318607e-6, -0.000111987764746857, -0.0001192715475468731, -0.0001389424666911054, 2.142209325484146e-5, 0.0005060561193204194, 0.002008786023452558, 0.007499132929297048, 0.01637668791590841, -0.04503358252259204, 0.1117557940160623, -0.1878062930627493, 0.04006248663063161, -0.1292171541281277, 0.3108715807029512, -0.6731919196608942, 0.8447603362728842, 0.5432394913223106, 0.4319300874485634, 1.468294703401625, 0.09899715939536691, 3.130700981244445, -0.5846357656409964, 0.419283899711445, 0.3859730699914508, -3.009891654888634, 4.098278250312433, 1.741844078758731, -0.6554838344454765, -0.9332426320761442, -1.106879073602613, -8.101594432024285, -0.6517855110578239, -12.69229504931718, -1.110646931454539, 13.24551000492647, 1.590742566622794, -4.785315459594131, -0.3674471504054964, 2.664037980604917, -1.657606602908345, 1.425265007717826, -0.2395088813391339, -0.539269587941817, 0.5633619455693406, -0.9996877439921263, 2.240355299800285, 2.92421687670867, 1.454924735473469, 1.212071506073698, 1.160958802560344, -0.04436263564275578, -0.04959470804897137, -0.1236272034584545, 0.1276469542499399, 0.04726418242353247, 0.021526581607759, -0.01632883594720624, 0.002336354151339037, -0.0110449995891031, -0.003174864661104948, 0.001188404161780454, 0.000827520099164758, 1.027739349979129e-5, 9.692910298753077e-5, -2.284309316280542e-5, 9.152053732641718e-6, -3.370534831903527e-6, 6.874223710262584e-7, -2.573217717377618e-7, -1.84389409435548e-8, 1.990124530448778e-9, 0.0, 1.210116817623903e-9, 0.0, 0.0, 0.0, 0.0, 0.0, 0.0, 0.0, 0.0, 0.0 },
            { 0.0, 0.0, 0.0, 0.0, 0.0, 0.0, 0.0, 0.0, 0.0, 0.0, 0.0, 0.0, -6.865441931971916e-9, 2.624037015452885e-9, -2.360258899783418e-8, 1.017024008342915e-7, 6.744113678625041e-8, 5.391729820392044e-7, -1.019967914217546e-5, -9.601629766109454e-5, -0.0001521093243823657, 1.545525975643613e-6, -0.0002535345931278243, 0.001034891273548055, -0.0005653812763739552, 0.009761900899320608, 0.01033430673305702, -0.03346808063361095, 0.07343050290364772, -0.1600049721819232, -0.05045279742626008, 0.01607688845251687, 0.1486527528613806, -0.56323624990182, 0.4831280792423058, 0.6416276312011178, 0.003052868720260449, 1.710869768750854, 0.3431057319976389, 3.148383450810798, -0.6263399809831753, 0.01214032550342381, 0.6046335986175109, -2.948464652174152, 3.601208968088031, 2.42334788152948, -1.65336309815757, -1.518861469114199, 1.210421774012502, -9.879140676697716, 0.9909837781451643, -15.04638834763318, 2.03590474370867, 11.16857095621526, 3.346892274916172, -5.081864615436643, 0.1419517586473376, 2.628928388177883, -1.765539308922598, 1.779370327800279, -0.4748295356221206, -0.6195330570044462, 0.8360823760012863, -1.582543341214659, 2.648703428043518, 2.338780777849024, 1.710306908586062, 0.8760552727035247, 1.256791605555918, -0.120501215395052, 0.06030451646074653, -0.176594172604382, 0.1620753792230971, 0.0622242596000433, 0.02907365719147492, -0.01123596883553546, 0.003747816186660202, -0.01069143814220297, -0.00318112360946543, 0.001018143782403058, 0.0007634519685666419, 6.026372446399364e-5, 6.941919333058877e-5, -2.15465366757428e-5, 6.30503533916027e-6, -3.435682153440922e-6, 5.202226961431577e-7, -2.218114944080307e-7, -2.729210948210214e-8, 4.117000539961835e-9, -1.140757194218953e-9, 1.234224423563631e-9, 0.0, 0.0, 0.0, 0.0, 0.0, 0.0, 0.0, 0.0, 0.0 },
            { 0.0, 0.0, 0.0, 0.0, 0.0, 0.0, 0.0, 0.0, 0.0, 0.0, 0.0, 0.0, -7.073582596398009e-9, 3.067657065002061e-9, -1.775608809637119e-8, 1.331555674888296e-7, 6.688954873323993e-8, 3.431214441462771e-7, -8.928682865949611e-6, -9.194436439230458e-5, -0.0001722445754168689, 4.708232293637593e-5, -0.0002628104248287855, 0.0007613247561266689, -0.001232616848028556, 0.008723477554667625, 0.01162432996898133, -0.03268965964161907, 0.06212193812098121, -0.1732571753527736, -0.05454394967819098, 0.02941350726177916, 0.182015079917619, -0.6695111209410243, 0.3931185670080595, 0.5475029174049268, -0.1558048997976584, 1.674649469612632, 0.6970747302984819, 3.278617773321457, -0.9498748338082805, -0.0716880758991465, 0.6789986388175748, -2.559879798558541, 3.508646903326735, 2.234349193749949, -1.090794335817918, -2.348414126085117, 1.173817641101778, -9.97367061721161, -0.1102697500027716, -15.93053956096992, 3.443063056096435, 10.92235756013542, 3.304308667313308, -3.55625426908955, 0.1247634028550237, 2.822901656036265, -1.591557014457067, 2.049390743028198, -1.053654993305827, -0.1898660335427849, 0.3618449401692487, -1.291404910622987, 2.235077335993992, 2.731794487888692, 1.390625164145604, 0.8934465372003615, 0.9683201691368595, -0.03701134584844112, 0.02883961910265498, -0.1490469054842833, 0.1469472555472748, 0.08976058509142604, 0.03921040774002904, -0.005409654215327464, 0.004889490257482976, -0.01040788265345327, -0.003394016794572963, 0.0008670326136552831, 0.0007534507466289142, 0.0001050467813854539, 6.310372555162758e-5, -2.316531903190366e-5, 4.956269997080653e-6, -3.464981694678571e-6, 4.733267428003174e-7, -1.97238008856071e-7, -2.01545071291942e-8, 3.678609901934526e-9, -1.050537689391978e-9, 1.091884675610919e-9, 0.0, 0.0, 0.0, 0.0, 0.0, 0.0, 0.0, 0.0, 0.0 },
